digraph Tree {
node [shape=box, style="rounded", color="black", fontname="helvetica"] ;
edge [fontname="helvetica"] ;
0 [label="Rabi <= 0.5\nsquared_error = 121.2\nsamples = 6125\nvalue = 34.6"] ;
1 [label="Kharif <= 0.5\nsquared_error = 97.3\nsamples = 4593\nvalue = 38.2"] ;
0 -> 1 [labeldistance=2.5, labelangle=45, headlabel="True"] ;
2 [label="Crops <= 30053.0\nsquared_error = 97.4\nsamples = 3565\nvalue = 39.9"] ;
1 -> 2 ;
3 [label="Soil_Temp_12lag <= 30.1\nsquared_error = 135.5\nsamples = 151\nvalue = 48.8"] ;
2 -> 3 ;
4 [label="Soil_Temp_12lag <= 30.0\nsquared_error = 155.3\nsamples = 28\nvalue = 42.0"] ;
3 -> 4 ;
5 [label="Crops <= 1313.0\nsquared_error = 121.7\nsamples = 25\nvalue = 44.9"] ;
4 -> 5 ;
6 [label="Soil_Temp_12lag <= 29.4\nsquared_error = 73.1\nsamples = 14\nvalue = 48.1"] ;
5 -> 6 ;
7 [label="Soil_Temp_12lag <= 29.1\nsquared_error = 40.8\nsamples = 13\nvalue = 49.7"] ;
6 -> 7 ;
8 [label="SSM_12lag <= 4.7\nsquared_error = 33.5\nsamples = 8\nvalue = 46.9"] ;
7 -> 8 ;
9 [label="Soil_Temp_12lag <= 29.0\nsquared_error = 80.6\nsamples = 2\nvalue = 39.0"] ;
8 -> 9 ;
10 [label="squared_error = 0.0\nsamples = 1\nvalue = 26.3"] ;
9 -> 10 ;
11 [label="squared_error = 0.0\nsamples = 1\nvalue = 45.4"] ;
9 -> 11 ;
12 [label="Crops <= 67.0\nsquared_error = 4.9\nsamples = 6\nvalue = 48.7"] ;
8 -> 12 ;
13 [label="SSM_12lag <= 23.4\nsquared_error = 0.0\nsamples = 3\nvalue = 51.9"] ;
12 -> 13 ;
14 [label="squared_error = 0.0\nsamples = 2\nvalue = 51.8"] ;
13 -> 14 ;
15 [label="squared_error = 0.0\nsamples = 1\nvalue = 51.9"] ;
13 -> 15 ;
16 [label="Soil_Temp_12lag <= 28.4\nsquared_error = 0.7\nsamples = 3\nvalue = 47.3"] ;
12 -> 16 ;
17 [label="squared_error = 0.0\nsamples = 1\nvalue = 46.1"] ;
16 -> 17 ;
18 [label="Soil_Temp_12lag <= 28.7\nsquared_error = 0.0\nsamples = 2\nvalue = 47.9"] ;
16 -> 18 ;
19 [label="squared_error = 0.0\nsamples = 1\nvalue = 48.1"] ;
18 -> 19 ;
20 [label="squared_error = 0.0\nsamples = 1\nvalue = 47.8"] ;
18 -> 20 ;
21 [label="SSM_12lag <= 4.1\nsquared_error = 13.2\nsamples = 5\nvalue = 54.8"] ;
7 -> 21 ;
22 [label="squared_error = 0.0\nsamples = 2\nvalue = 51.6"] ;
21 -> 22 ;
23 [label="Soil_Temp_12lag <= 29.2\nsquared_error = 8.1\nsamples = 3\nvalue = 57.5"] ;
21 -> 23 ;
24 [label="squared_error = 0.0\nsamples = 1\nvalue = 54.0"] ;
23 -> 24 ;
25 [label="Crops <= 479.5\nsquared_error = 0.2\nsamples = 2\nvalue = 59.8"] ;
23 -> 25 ;
26 [label="squared_error = 0.0\nsamples = 1\nvalue = 60.5"] ;
25 -> 26 ;
27 [label="squared_error = 0.0\nsamples = 1\nvalue = 59.4"] ;
25 -> 27 ;
28 [label="squared_error = -0.0\nsamples = 1\nvalue = 27.1"] ;
6 -> 28 ;
29 [label="SSM_12lag <= 18.5\nsquared_error = 158.3\nsamples = 11\nvalue = 39.2"] ;
5 -> 29 ;
30 [label="Soil_Temp_12lag <= 29.4\nsquared_error = 0.2\nsamples = 2\nvalue = 23.1"] ;
29 -> 30 ;
31 [label="squared_error = 0.0\nsamples = 1\nvalue = 22.8"] ;
30 -> 31 ;
32 [label="squared_error = 0.0\nsamples = 1\nvalue = 23.8"] ;
30 -> 32 ;
33 [label="Soil_Temp_12lag <= 28.5\nsquared_error = 117.1\nsamples = 9\nvalue = 43.2"] ;
29 -> 33 ;
34 [label="Soil_Temp_12lag <= 28.3\nsquared_error = 126.6\nsamples = 3\nvalue = 32.2"] ;
33 -> 34 ;
35 [label="Crops <= 10983.0\nsquared_error = 1.1\nsamples = 2\nvalue = 43.4"] ;
34 -> 35 ;
36 [label="squared_error = 0.0\nsamples = 1\nvalue = 42.4"] ;
35 -> 36 ;
37 [label="squared_error = 0.0\nsamples = 1\nvalue = 44.4"] ;
35 -> 37 ;
38 [label="squared_error = -0.0\nsamples = 1\nvalue = 20.9"] ;
34 -> 38 ;
39 [label="Crops <= 17400.0\nsquared_error = 21.1\nsamples = 6\nvalue = 48.7"] ;
33 -> 39 ;
40 [label="Crops <= 13258.0\nsquared_error = 0.5\nsamples = 3\nvalue = 53.2"] ;
39 -> 40 ;
41 [label="squared_error = 0.0\nsamples = 1\nvalue = 52.2"] ;
40 -> 41 ;
42 [label="Crops <= 14906.0\nsquared_error = 0.1\nsamples = 2\nvalue = 53.6"] ;
40 -> 42 ;
43 [label="squared_error = 0.0\nsamples = 1\nvalue = 54.1"] ;
42 -> 43 ;
44 [label="squared_error = 0.0\nsamples = 1\nvalue = 53.4"] ;
42 -> 44 ;
45 [label="Soil_Temp_12lag <= 28.5\nsquared_error = 0.5\nsamples = 3\nvalue = 44.2"] ;
39 -> 45 ;
46 [label="squared_error = 0.0\nsamples = 1\nvalue = 45.4"] ;
45 -> 46 ;
47 [label="Soil_Temp_12lag <= 29.0\nsquared_error = 0.0\nsamples = 2\nvalue = 43.8"] ;
45 -> 47 ;
48 [label="squared_error = 0.0\nsamples = 1\nvalue = 43.9"] ;
47 -> 48 ;
49 [label="squared_error = 0.0\nsamples = 1\nvalue = 43.5"] ;
47 -> 49 ;
50 [label="Crops <= 667.5\nsquared_error = 0.6\nsamples = 3\nvalue = 24.5"] ;
4 -> 50 ;
51 [label="SSM_12lag <= 13.5\nsquared_error = 0.2\nsamples = 2\nvalue = 25.1"] ;
50 -> 51 ;
52 [label="squared_error = 0.0\nsamples = 1\nvalue = 25.8"] ;
51 -> 52 ;
53 [label="squared_error = 0.0\nsamples = 1\nvalue = 24.9"] ;
51 -> 53 ;
54 [label="squared_error = 0.0\nsamples = 1\nvalue = 23.7"] ;
50 -> 54 ;
55 [label="SSM_12lag <= 4.3\nsquared_error = 116.8\nsamples = 123\nvalue = 50.4"] ;
3 -> 55 ;
56 [label="SSM_12lag <= 3.4\nsquared_error = 145.0\nsamples = 64\nvalue = 48.8"] ;
55 -> 56 ;
57 [label="Soil_Temp_12lag <= 37.0\nsquared_error = 114.1\nsamples = 58\nvalue = 50.4"] ;
56 -> 57 ;
58 [label="Soil_Temp_12lag <= 34.6\nsquared_error = 93.4\nsamples = 19\nvalue = 55.9"] ;
57 -> 58 ;
59 [label="Crops <= 57.5\nsquared_error = 76.2\nsamples = 12\nvalue = 52.0"] ;
58 -> 59 ;
60 [label="Soil_Temp_12lag <= 33.1\nsquared_error = 5.1\nsamples = 2\nvalue = 62.7"] ;
59 -> 60 ;
61 [label="squared_error = 0.0\nsamples = 1\nvalue = 65.9"] ;
60 -> 61 ;
62 [label="squared_error = 0.0\nsamples = 1\nvalue = 61.1"] ;
60 -> 62 ;
63 [label="SSM_12lag <= 2.2\nsquared_error = 60.2\nsamples = 10\nvalue = 49.6"] ;
59 -> 63 ;
64 [label="SSM_12lag <= 2.0\nsquared_error = 16.4\nsamples = 5\nvalue = 53.9"] ;
63 -> 64 ;
65 [label="squared_error = 0.0\nsamples = 1\nvalue = 62.1"] ;
64 -> 65 ;
66 [label="Soil_Temp_12lag <= 31.4\nsquared_error = 3.6\nsamples = 4\nvalue = 52.3"] ;
64 -> 66 ;
67 [label="squared_error = 0.0\nsamples = 1\nvalue = 55.9"] ;
66 -> 67 ;
68 [label="SSM_12lag <= 2.2\nsquared_error = 0.3\nsamples = 3\nvalue = 51.4"] ;
66 -> 68 ;
69 [label="squared_error = 0.1\nsamples = 2\nvalue = 51.1"] ;
68 -> 69 ;
70 [label="squared_error = -0.0\nsamples = 1\nvalue = 52.2"] ;
68 -> 70 ;
71 [label="Crops <= 10205.5\nsquared_error = 67.6\nsamples = 5\nvalue = 45.8"] ;
63 -> 71 ;
72 [label="SSM_12lag <= 2.4\nsquared_error = 16.3\nsamples = 4\nvalue = 48.8"] ;
71 -> 72 ;
73 [label="Crops <= 686.5\nsquared_error = 4.0\nsamples = 2\nvalue = 45.4"] ;
72 -> 73 ;
74 [label="squared_error = 0.0\nsamples = 1\nvalue = 44.0"] ;
73 -> 74 ;
75 [label="squared_error = 0.0\nsamples = 1\nvalue = 48.2"] ;
73 -> 75 ;
76 [label="Soil_Temp_12lag <= 32.2\nsquared_error = 5.6\nsamples = 2\nvalue = 52.2"] ;
72 -> 76 ;
77 [label="squared_error = 0.0\nsamples = 1\nvalue = 55.6"] ;
76 -> 77 ;
78 [label="squared_error = 0.0\nsamples = 1\nvalue = 50.6"] ;
76 -> 78 ;
79 [label="squared_error = 0.0\nsamples = 1\nvalue = 27.9"] ;
71 -> 79 ;
80 [label="Crops <= 98.5\nsquared_error = 79.0\nsamples = 7\nvalue = 60.0"] ;
58 -> 80 ;
81 [label="Soil_Temp_12lag <= 35.5\nsquared_error = 48.3\nsamples = 2\nvalue = 47.3"] ;
80 -> 81 ;
82 [label="squared_error = 0.0\nsamples = 1\nvalue = 59.3"] ;
81 -> 82 ;
83 [label="squared_error = 0.0\nsamples = 1\nvalue = 43.3"] ;
81 -> 83 ;
84 [label="Soil_Temp_12lag <= 36.5\nsquared_error = 10.6\nsamples = 5\nvalue = 64.6"] ;
80 -> 84 ;
85 [label="SSM_12lag <= 2.0\nsquared_error = 4.2\nsamples = 4\nvalue = 65.4"] ;
84 -> 85 ;
86 [label="Crops <= 11497.5\nsquared_error = 0.0\nsamples = 2\nvalue = 66.8"] ;
85 -> 86 ;
87 [label="squared_error = 0.0\nsamples = 1\nvalue = 66.8"] ;
86 -> 87 ;
88 [label="squared_error = 0.0\nsamples = 1\nvalue = 66.8"] ;
86 -> 88 ;
89 [label="Soil_Temp_12lag <= 35.1\nsquared_error = 3.7\nsamples = 2\nvalue = 63.4"] ;
85 -> 89 ;
90 [label="squared_error = 0.0\nsamples = 1\nvalue = 66.7"] ;
89 -> 90 ;
91 [label="squared_error = 0.0\nsamples = 1\nvalue = 62.3"] ;
89 -> 91 ;
92 [label="squared_error = -0.0\nsamples = 1\nvalue = 56.3"] ;
84 -> 92 ;
93 [label="Soil_Temp_12lag <= 37.6\nsquared_error = 104.0\nsamples = 39\nvalue = 48.0"] ;
57 -> 93 ;
94 [label="squared_error = 0.0\nsamples = 1\nvalue = 27.1"] ;
93 -> 94 ;
95 [label="SSM_12lag <= 2.4\nsquared_error = 87.8\nsamples = 38\nvalue = 48.9"] ;
93 -> 95 ;
96 [label="SSM_12lag <= 2.4\nsquared_error = 90.5\nsamples = 28\nvalue = 46.7"] ;
95 -> 96 ;
97 [label="Crops <= 10.0\nsquared_error = 68.0\nsamples = 27\nvalue = 47.8"] ;
96 -> 97 ;
98 [label="SSM_12lag <= 1.9\nsquared_error = 10.9\nsamples = 7\nvalue = 53.0"] ;
97 -> 98 ;
99 [label="squared_error = 0.0\nsamples = 1\nvalue = 58.5"] ;
98 -> 99 ;
100 [label="Soil_Temp_12lag <= 44.8\nsquared_error = 5.8\nsamples = 6\nvalue = 51.9"] ;
98 -> 100 ;
101 [label="squared_error = 5.3\nsamples = 5\nvalue = 51.5"] ;
100 -> 101 ;
102 [label="squared_error = 0.0\nsamples = 1\nvalue = 54.9"] ;
100 -> 102 ;
103 [label="Crops <= 40.5\nsquared_error = 75.5\nsamples = 20\nvalue = 45.8"] ;
97 -> 103 ;
104 [label="SSM_12lag <= 2.2\nsquared_error = 144.1\nsamples = 2\nvalue = 39.2"] ;
103 -> 104 ;
105 [label="squared_error = 0.0\nsamples = 1\nvalue = 24.5"] ;
104 -> 105 ;
106 [label="squared_error = 0.0\nsamples = 1\nvalue = 49.0"] ;
104 -> 106 ;
107 [label="Crops <= 22428.0\nsquared_error = 53.2\nsamples = 18\nvalue = 47.0"] ;
103 -> 107 ;
108 [label="squared_error = 35.1\nsamples = 16\nvalue = 47.9"] ;
107 -> 108 ;
109 [label="squared_error = 162.6\nsamples = 2\nvalue = 36.6"] ;
107 -> 109 ;
110 [label="squared_error = 0.0\nsamples = 1\nvalue = 23.0"] ;
96 -> 110 ;
111 [label="Soil_Temp_12lag <= 40.6\nsquared_error = 39.4\nsamples = 10\nvalue = 54.4"] ;
95 -> 111 ;
112 [label="SSM_12lag <= 2.5\nsquared_error = 9.1\nsamples = 4\nvalue = 60.6"] ;
111 -> 112 ;
113 [label="squared_error = 0.0\nsamples = 1\nvalue = 65.3"] ;
112 -> 113 ;
114 [label="Crops <= 5332.5\nsquared_error = 0.4\nsamples = 3\nvalue = 58.7"] ;
112 -> 114 ;
115 [label="SSM_12lag <= 2.7\nsquared_error = 0.0\nsamples = 2\nvalue = 59.2"] ;
114 -> 115 ;
116 [label="squared_error = 0.0\nsamples = 1\nvalue = 59.4"] ;
115 -> 116 ;
117 [label="squared_error = 0.0\nsamples = 1\nvalue = 59.2"] ;
115 -> 117 ;
118 [label="squared_error = 0.0\nsamples = 1\nvalue = 57.9"] ;
114 -> 118 ;
119 [label="SSM_12lag <= 2.5\nsquared_error = 21.7\nsamples = 6\nvalue = 50.8"] ;
111 -> 119 ;
120 [label="SSM_12lag <= 2.4\nsquared_error = 0.3\nsamples = 2\nvalue = 53.8"] ;
119 -> 120 ;
121 [label="squared_error = 0.0\nsamples = 1\nvalue = 52.7"] ;
120 -> 121 ;
122 [label="squared_error = 0.0\nsamples = 1\nvalue = 54.1"] ;
120 -> 122 ;
123 [label="Crops <= 19741.0\nsquared_error = 25.7\nsamples = 4\nvalue = 48.6"] ;
119 -> 123 ;
124 [label="Crops <= 15752.0\nsquared_error = 1.1\nsamples = 3\nvalue = 45.4"] ;
123 -> 124 ;
125 [label="squared_error = 0.1\nsamples = 2\nvalue = 45.9"] ;
124 -> 125 ;
126 [label="squared_error = 0.0\nsamples = 1\nvalue = 43.4"] ;
124 -> 126 ;
127 [label="squared_error = 0.0\nsamples = 1\nvalue = 56.5"] ;
123 -> 127 ;
128 [label="SSM_12lag <= 3.5\nsquared_error = 194.3\nsamples = 6\nvalue = 35.3"] ;
56 -> 128 ;
129 [label="squared_error = 0.0\nsamples = 1\nvalue = 22.2"] ;
128 -> 129 ;
130 [label="Soil_Temp_12lag <= 30.8\nsquared_error = 164.3\nsamples = 5\nvalue = 41.8"] ;
128 -> 130 ;
131 [label="squared_error = 0.0\nsamples = 1\nvalue = 19.9"] ;
130 -> 131 ;
132 [label="Crops <= 3472.0\nsquared_error = 6.8\nsamples = 4\nvalue = 49.1"] ;
130 -> 132 ;
133 [label="Soil_Temp_12lag <= 36.1\nsquared_error = 0.5\nsamples = 2\nvalue = 51.4"] ;
132 -> 133 ;
134 [label="squared_error = 0.0\nsamples = 1\nvalue = 50.5"] ;
133 -> 134 ;
135 [label="squared_error = 0.0\nsamples = 1\nvalue = 51.9"] ;
133 -> 135 ;
136 [label="Crops <= 5550.0\nsquared_error = 2.0\nsamples = 2\nvalue = 46.7"] ;
132 -> 136 ;
137 [label="squared_error = 0.0\nsamples = 1\nvalue = 44.7"] ;
136 -> 137 ;
138 [label="squared_error = 0.0\nsamples = 1\nvalue = 47.7"] ;
136 -> 138 ;
139 [label="Crops <= 35.0\nsquared_error = 75.9\nsamples = 59\nvalue = 52.4"] ;
55 -> 139 ;
140 [label="SSM_12lag <= 21.5\nsquared_error = 52.1\nsamples = 17\nvalue = 58.2"] ;
139 -> 140 ;
141 [label="Soil_Temp_12lag <= 31.4\nsquared_error = 44.3\nsamples = 15\nvalue = 59.5"] ;
140 -> 141 ;
142 [label="SSM_12lag <= 16.4\nsquared_error = 8.0\nsamples = 3\nvalue = 65.4"] ;
141 -> 142 ;
143 [label="SSM_12lag <= 10.1\nsquared_error = 1.3\nsamples = 2\nvalue = 67.6"] ;
142 -> 143 ;
144 [label="squared_error = 0.0\nsamples = 1\nvalue = 66.8"] ;
143 -> 144 ;
145 [label="squared_error = 0.0\nsamples = 1\nvalue = 69.2"] ;
143 -> 145 ;
146 [label="squared_error = 0.0\nsamples = 1\nvalue = 62.1"] ;
142 -> 146 ;
147 [label="Soil_Temp_12lag <= 32.5\nsquared_error = 41.7\nsamples = 12\nvalue = 57.7"] ;
141 -> 147 ;
148 [label="squared_error = 0.0\nsamples = 1\nvalue = 45.7"] ;
147 -> 148 ;
149 [label="SSM_12lag <= 11.3\nsquared_error = 34.7\nsamples = 11\nvalue = 58.5"] ;
147 -> 149 ;
150 [label="Soil_Temp_12lag <= 41.9\nsquared_error = 35.8\nsamples = 3\nvalue = 64.0"] ;
149 -> 150 ;
151 [label="Soil_Temp_12lag <= 37.2\nsquared_error = 1.1\nsamples = 2\nvalue = 67.5"] ;
150 -> 151 ;
152 [label="squared_error = 0.0\nsamples = 1\nvalue = 68.9"] ;
151 -> 152 ;
153 [label="squared_error = 0.0\nsamples = 1\nvalue = 66.7"] ;
151 -> 153 ;
154 [label="squared_error = 0.0\nsamples = 1\nvalue = 53.8"] ;
150 -> 154 ;
155 [label="SSM_12lag <= 12.7\nsquared_error = 20.6\nsamples = 8\nvalue = 56.7"] ;
149 -> 155 ;
156 [label="squared_error = 0.0\nsamples = 1\nvalue = 45.4"] ;
155 -> 156 ;
157 [label="Soil_Temp_12lag <= 39.9\nsquared_error = 9.8\nsamples = 7\nvalue = 57.7"] ;
155 -> 157 ;
158 [label="Crops <= 1.0\nsquared_error = 7.3\nsamples = 5\nvalue = 58.6"] ;
157 -> 158 ;
159 [label="squared_error = 1.1\nsamples = 3\nvalue = 59.6"] ;
158 -> 159 ;
160 [label="squared_error = 10.1\nsamples = 2\nvalue = 54.7"] ;
158 -> 160 ;
161 [label="SSM_12lag <= 16.8\nsquared_error = 2.4\nsamples = 2\nvalue = 53.8"] ;
157 -> 161 ;
162 [label="squared_error = 0.0\nsamples = 1\nvalue = 55.3"] ;
161 -> 162 ;
163 [label="squared_error = 0.0\nsamples = 1\nvalue = 52.2"] ;
161 -> 163 ;
164 [label="Crops <= 1.0\nsquared_error = 2.2\nsamples = 2\nvalue = 48.5"] ;
140 -> 164 ;
165 [label="squared_error = 0.0\nsamples = 1\nvalue = 47.4"] ;
164 -> 165 ;
166 [label="squared_error = 0.0\nsamples = 1\nvalue = 50.6"] ;
164 -> 166 ;
167 [label="Crops <= 8473.0\nsquared_error = 67.6\nsamples = 42\nvalue = 50.2"] ;
139 -> 167 ;
168 [label="Crops <= 118.0\nsquared_error = 51.0\nsamples = 24\nvalue = 52.1"] ;
167 -> 168 ;
169 [label="Soil_Temp_12lag <= 32.3\nsquared_error = 133.2\nsamples = 3\nvalue = 44.1"] ;
168 -> 169 ;
170 [label="Soil_Temp_12lag <= 31.2\nsquared_error = 159.2\nsamples = 2\nvalue = 36.8"] ;
169 -> 170 ;
171 [label="squared_error = 0.0\nsamples = 1\nvalue = 54.6"] ;
170 -> 171 ;
172 [label="squared_error = 0.0\nsamples = 1\nvalue = 27.8"] ;
170 -> 172 ;
173 [label="squared_error = 0.0\nsamples = 1\nvalue = 51.4"] ;
169 -> 173 ;
174 [label="SSM_12lag <= 14.8\nsquared_error = 23.0\nsamples = 21\nvalue = 53.6"] ;
168 -> 174 ;
175 [label="Crops <= 3827.5\nsquared_error = 6.7\nsamples = 8\nvalue = 57.0"] ;
174 -> 175 ;
176 [label="SSM_12lag <= 12.6\nsquared_error = 0.9\nsamples = 5\nvalue = 58.1"] ;
175 -> 176 ;
177 [label="Soil_Temp_12lag <= 31.0\nsquared_error = 0.5\nsamples = 4\nvalue = 57.7"] ;
176 -> 177 ;
178 [label="squared_error = 0.0\nsamples = 1\nvalue = 56.2"] ;
177 -> 178 ;
179 [label="SSM_12lag <= 9.7\nsquared_error = 0.1\nsamples = 3\nvalue = 57.9"] ;
177 -> 179 ;
180 [label="squared_error = 0.0\nsamples = 2\nvalue = 58.1"] ;
179 -> 180 ;
181 [label="squared_error = 0.0\nsamples = 1\nvalue = 57.3"] ;
179 -> 181 ;
182 [label="squared_error = 0.0\nsamples = 1\nvalue = 59.4"] ;
176 -> 182 ;
183 [label="Soil_Temp_12lag <= 32.9\nsquared_error = 11.1\nsamples = 3\nvalue = 54.2"] ;
175 -> 183 ;
184 [label="Soil_Temp_12lag <= 31.8\nsquared_error = 2.6\nsamples = 2\nvalue = 52.0"] ;
183 -> 184 ;
185 [label="squared_error = 0.0\nsamples = 1\nvalue = 53.6"] ;
184 -> 185 ;
186 [label="squared_error = -0.0\nsamples = 1\nvalue = 50.4"] ;
184 -> 186 ;
187 [label="squared_error = 0.0\nsamples = 1\nvalue = 58.5"] ;
183 -> 187 ;
188 [label="Crops <= 4694.0\nsquared_error = 22.4\nsamples = 13\nvalue = 51.9"] ;
174 -> 188 ;
189 [label="SSM_12lag <= 22.8\nsquared_error = 17.3\nsamples = 11\nvalue = 50.8"] ;
188 -> 189 ;
190 [label="SSM_12lag <= 22.1\nsquared_error = 16.2\nsamples = 10\nvalue = 51.1"] ;
189 -> 190 ;
191 [label="SSM_12lag <= 22.0\nsquared_error = 12.8\nsamples = 9\nvalue = 50.3"] ;
190 -> 191 ;
192 [label="squared_error = 10.1\nsamples = 8\nvalue = 50.8"] ;
191 -> 192 ;
193 [label="squared_error = 0.0\nsamples = 1\nvalue = 43.2"] ;
191 -> 193 ;
194 [label="squared_error = 0.0\nsamples = 1\nvalue = 57.3"] ;
190 -> 194 ;
195 [label="squared_error = -0.0\nsamples = 1\nvalue = 44.9"] ;
189 -> 195 ;
196 [label="SSM_12lag <= 23.4\nsquared_error = 9.2\nsamples = 2\nvalue = 57.5"] ;
188 -> 196 ;
197 [label="squared_error = 0.0\nsamples = 1\nvalue = 59.2"] ;
196 -> 197 ;
198 [label="squared_error = 0.0\nsamples = 1\nvalue = 52.2"] ;
196 -> 198 ;
199 [label="Crops <= 17891.0\nsquared_error = 78.5\nsamples = 18\nvalue = 47.4"] ;
167 -> 199 ;
200 [label="Crops <= 11490.5\nsquared_error = 75.6\nsamples = 12\nvalue = 45.1"] ;
199 -> 200 ;
201 [label="squared_error = 0.0\nsamples = 1\nvalue = 28.7"] ;
200 -> 201 ;
202 [label="Crops <= 15677.0\nsquared_error = 64.7\nsamples = 11\nvalue = 46.0"] ;
200 -> 202 ;
203 [label="Crops <= 13258.0\nsquared_error = 23.8\nsamples = 5\nvalue = 49.2"] ;
202 -> 203 ;
204 [label="squared_error = 0.0\nsamples = 1\nvalue = 55.8"] ;
203 -> 204 ;
205 [label="SSM_12lag <= 14.2\nsquared_error = 16.1\nsamples = 4\nvalue = 47.5"] ;
203 -> 205 ;
206 [label="SSM_12lag <= 7.5\nsquared_error = 17.6\nsamples = 2\nvalue = 51.2"] ;
205 -> 206 ;
207 [label="squared_error = 0.0\nsamples = 1\nvalue = 48.2"] ;
206 -> 207 ;
208 [label="squared_error = 0.0\nsamples = 1\nvalue = 57.1"] ;
206 -> 208 ;
209 [label="Crops <= 14906.0\nsquared_error = 2.4\nsamples = 2\nvalue = 45.3"] ;
205 -> 209 ;
210 [label="squared_error = 0.0\nsamples = 1\nvalue = 43.4"] ;
209 -> 210 ;
211 [label="squared_error = 0.0\nsamples = 1\nvalue = 46.6"] ;
209 -> 211 ;
212 [label="Soil_Temp_12lag <= 31.0\nsquared_error = 86.0\nsamples = 6\nvalue = 42.4"] ;
202 -> 212 ;
213 [label="Soil_Temp_12lag <= 30.1\nsquared_error = 20.4\nsamples = 5\nvalue = 46.9"] ;
212 -> 213 ;
214 [label="squared_error = 0.0\nsamples = 1\nvalue = 56.7"] ;
213 -> 214 ;
215 [label="Soil_Temp_12lag <= 30.3\nsquared_error = 5.0\nsamples = 4\nvalue = 45.2"] ;
213 -> 215 ;
216 [label="squared_error = 0.0\nsamples = 1\nvalue = 49.5"] ;
215 -> 216 ;
217 [label="squared_error = 1.6\nsamples = 3\nvalue = 44.4"] ;
215 -> 217 ;
218 [label="squared_error = 0.0\nsamples = 1\nvalue = 26.7"] ;
212 -> 218 ;
219 [label="Crops <= 24709.0\nsquared_error = 30.8\nsamples = 6\nvalue = 53.8"] ;
199 -> 219 ;
220 [label="Soil_Temp_12lag <= 34.8\nsquared_error = 23.4\nsamples = 5\nvalue = 52.5"] ;
219 -> 220 ;
221 [label="Crops <= 18963.5\nsquared_error = 4.0\nsamples = 3\nvalue = 55.7"] ;
220 -> 221 ;
222 [label="squared_error = 0.0\nsamples = 1\nvalue = 52.7"] ;
221 -> 222 ;
223 [label="Crops <= 19741.0\nsquared_error = 1.4\nsamples = 2\nvalue = 56.7"] ;
221 -> 223 ;
224 [label="squared_error = 0.0\nsamples = 1\nvalue = 55.8"] ;
223 -> 224 ;
225 [label="squared_error = -0.0\nsamples = 1\nvalue = 58.4"] ;
223 -> 225 ;
226 [label="SSM_12lag <= 8.7\nsquared_error = 0.2\nsamples = 2\nvalue = 46.0"] ;
220 -> 226 ;
227 [label="squared_error = 0.0\nsamples = 1\nvalue = 46.5"] ;
226 -> 227 ;
228 [label="squared_error = -0.0\nsamples = 1\nvalue = 45.6"] ;
226 -> 228 ;
229 [label="squared_error = 0.0\nsamples = 1\nvalue = 61.8"] ;
219 -> 229 ;
230 [label="Crops <= 1568705.5\nsquared_error = 91.7\nsamples = 3414\nvalue = 39.5"] ;
2 -> 230 ;
231 [label="Crops <= 934295.5\nsquared_error = 93.7\nsamples = 2374\nvalue = 40.2"] ;
230 -> 231 ;
232 [label="Crops <= 58447.0\nsquared_error = 92.7\nsamples = 854\nvalue = 41.2"] ;
231 -> 232 ;
233 [label="Soil_Temp_12lag <= 43.9\nsquared_error = 120.5\nsamples = 20\nvalue = 33.3"] ;
232 -> 233 ;
234 [label="Soil_Temp_12lag <= 30.3\nsquared_error = 60.0\nsamples = 19\nvalue = 30.7"] ;
233 -> 234 ;
235 [label="Crops <= 43156.5\nsquared_error = 34.5\nsamples = 4\nvalue = 40.9"] ;
234 -> 235 ;
236 [label="Soil_Temp_12lag <= 29.5\nsquared_error = 0.4\nsamples = 3\nvalue = 44.3"] ;
235 -> 236 ;
237 [label="squared_error = 0.0\nsamples = 1\nvalue = 43.5"] ;
236 -> 237 ;
238 [label="SSM_12lag <= 2.6\nsquared_error = 0.1\nsamples = 2\nvalue = 44.7"] ;
236 -> 238 ;
239 [label="squared_error = 0.0\nsamples = 1\nvalue = 44.4"] ;
238 -> 239 ;
240 [label="squared_error = 0.0\nsamples = 1\nvalue = 45.0"] ;
238 -> 240 ;
241 [label="squared_error = 0.0\nsamples = 1\nvalue = 30.8"] ;
235 -> 241 ;
242 [label="SSM_12lag <= 16.7\nsquared_error = 45.4\nsamples = 15\nvalue = 29.1"] ;
234 -> 242 ;
243 [label="SSM_12lag <= 2.0\nsquared_error = 24.0\nsamples = 10\nvalue = 25.9"] ;
242 -> 243 ;
244 [label="Soil_Temp_12lag <= 36.3\nsquared_error = 3.2\nsamples = 2\nvalue = 32.4"] ;
243 -> 244 ;
245 [label="squared_error = 0.0\nsamples = 1\nvalue = 33.7"] ;
244 -> 245 ;
246 [label="squared_error = 0.0\nsamples = 1\nvalue = 29.9"] ;
244 -> 246 ;
247 [label="Crops <= 31148.0\nsquared_error = 17.8\nsamples = 8\nvalue = 24.5"] ;
243 -> 247 ;
248 [label="Soil_Temp_12lag <= 39.8\nsquared_error = 20.5\nsamples = 3\nvalue = 30.8"] ;
247 -> 248 ;
249 [label="squared_error = 0.0\nsamples = 1\nvalue = 36.3"] ;
248 -> 249 ;
250 [label="SSM_12lag <= 8.2\nsquared_error = 7.7\nsamples = 2\nvalue = 28.0"] ;
248 -> 250 ;
251 [label="squared_error = 0.0\nsamples = 1\nvalue = 25.2"] ;
250 -> 251 ;
252 [label="squared_error = 0.0\nsamples = 1\nvalue = 30.8"] ;
250 -> 252 ;
253 [label="SSM_12lag <= 7.4\nsquared_error = 5.1\nsamples = 5\nvalue = 23.0"] ;
247 -> 253 ;
254 [label="SSM_12lag <= 2.4\nsquared_error = 4.7\nsamples = 4\nvalue = 23.5"] ;
253 -> 254 ;
255 [label="squared_error = 0.7\nsamples = 2\nvalue = 21.8"] ;
254 -> 255 ;
256 [label="squared_error = 3.0\nsamples = 2\nvalue = 25.2"] ;
254 -> 256 ;
257 [label="squared_error = 0.0\nsamples = 1\nvalue = 20.6"] ;
253 -> 257 ;
258 [label="Soil_Temp_12lag <= 34.0\nsquared_error = 15.3\nsamples = 5\nvalue = 36.5"] ;
242 -> 258 ;
259 [label="SSM_12lag <= 21.3\nsquared_error = 7.5\nsamples = 3\nvalue = 34.7"] ;
258 -> 259 ;
260 [label="squared_error = 0.0\nsamples = 1\nvalue = 38.1"] ;
259 -> 260 ;
261 [label="Crops <= 50453.5\nsquared_error = 2.6\nsamples = 2\nvalue = 33.0"] ;
259 -> 261 ;
262 [label="squared_error = 0.0\nsamples = 1\nvalue = 34.6"] ;
261 -> 262 ;
263 [label="squared_error = 0.0\nsamples = 1\nvalue = 31.4"] ;
261 -> 263 ;
264 [label="Soil_Temp_12lag <= 36.5\nsquared_error = 0.2\nsamples = 2\nvalue = 41.9"] ;
258 -> 264 ;
265 [label="squared_error = 0.0\nsamples = 1\nvalue = 42.3"] ;
264 -> 265 ;
266 [label="squared_error = 0.0\nsamples = 1\nvalue = 41.4"] ;
264 -> 266 ;
267 [label="squared_error = -0.0\nsamples = 1\nvalue = 58.9"] ;
233 -> 267 ;
268 [label="Soil_Temp_12lag <= 45.0\nsquared_error = 90.3\nsamples = 834\nvalue = 41.4"] ;
232 -> 268 ;
269 [label="Crops <= 928958.5\nsquared_error = 89.2\nsamples = 817\nvalue = 41.5"] ;
268 -> 269 ;
270 [label="Crops <= 266505.5\nsquared_error = 87.8\nsamples = 800\nvalue = 41.4"] ;
269 -> 270 ;
271 [label="Soil_Temp_12lag <= 36.9\nsquared_error = 104.5\nsamples = 101\nvalue = 43.8"] ;
270 -> 271 ;
272 [label="SSM_12lag <= 13.9\nsquared_error = 112.9\nsamples = 81\nvalue = 42.3"] ;
271 -> 272 ;
273 [label="SSM_12lag <= 9.8\nsquared_error = 114.3\nsamples = 37\nvalue = 44.9"] ;
272 -> 273 ;
274 [label="Crops <= 148102.5\nsquared_error = 115.3\nsamples = 30\nvalue = 43.2"] ;
273 -> 274 ;
275 [label="squared_error = 106.8\nsamples = 20\nvalue = 41.1"] ;
274 -> 275 ;
276 [label="squared_error = 105.7\nsamples = 10\nvalue = 47.4"] ;
274 -> 276 ;
277 [label="Soil_Temp_12lag <= 34.0\nsquared_error = 28.8\nsamples = 7\nvalue = 53.0"] ;
273 -> 277 ;
278 [label="squared_error = 3.7\nsamples = 5\nvalue = 55.4"] ;
277 -> 278 ;
279 [label="squared_error = 2.3\nsamples = 2\nvalue = 42.4"] ;
277 -> 279 ;
280 [label="SSM_12lag <= 16.6\nsquared_error = 100.6\nsamples = 44\nvalue = 40.0"] ;
272 -> 280 ;
281 [label="SSM_12lag <= 16.0\nsquared_error = 132.8\nsamples = 7\nvalue = 31.4"] ;
280 -> 281 ;
282 [label="squared_error = 126.9\nsamples = 6\nvalue = 35.9"] ;
281 -> 282 ;
283 [label="squared_error = -0.0\nsamples = 1\nvalue = 21.3"] ;
281 -> 283 ;
284 [label="Crops <= 148102.5\nsquared_error = 74.1\nsamples = 37\nvalue = 41.9"] ;
280 -> 284 ;
285 [label="squared_error = 44.1\nsamples = 22\nvalue = 44.7"] ;
284 -> 285 ;
286 [label="squared_error = 88.3\nsamples = 15\nvalue = 37.8"] ;
284 -> 286 ;
287 [label="SSM_12lag <= 2.5\nsquared_error = 25.8\nsamples = 20\nvalue = 49.7"] ;
271 -> 287 ;
288 [label="Soil_Temp_12lag <= 40.8\nsquared_error = 28.4\nsamples = 6\nvalue = 53.2"] ;
287 -> 288 ;
289 [label="SSM_12lag <= 1.9\nsquared_error = 15.2\nsamples = 3\nvalue = 46.1"] ;
288 -> 289 ;
290 [label="squared_error = 1.8\nsamples = 2\nvalue = 48.8"] ;
289 -> 290 ;
291 [label="squared_error = 0.0\nsamples = 1\nvalue = 40.8"] ;
289 -> 291 ;
292 [label="Soil_Temp_12lag <= 42.4\nsquared_error = 3.5\nsamples = 3\nvalue = 56.2"] ;
288 -> 292 ;
293 [label="squared_error = 0.4\nsamples = 2\nvalue = 55.5"] ;
292 -> 293 ;
294 [label="squared_error = -0.0\nsamples = 1\nvalue = 60.6"] ;
292 -> 294 ;
295 [label="Soil_Temp_12lag <= 37.0\nsquared_error = 17.7\nsamples = 14\nvalue = 48.3"] ;
287 -> 295 ;
296 [label="squared_error = 0.0\nsamples = 1\nvalue = 55.8"] ;
295 -> 296 ;
297 [label="Crops <= 224468.0\nsquared_error = 11.1\nsamples = 13\nvalue = 47.2"] ;
295 -> 297 ;
298 [label="squared_error = 11.0\nsamples = 10\nvalue = 48.1"] ;
297 -> 298 ;
299 [label="squared_error = 2.3\nsamples = 3\nvalue = 44.6"] ;
297 -> 299 ;
300 [label="Crops <= 291688.0\nsquared_error = 84.1\nsamples = 699\nvalue = 41.0"] ;
270 -> 300 ;
301 [label="SSM_12lag <= 1.9\nsquared_error = 47.9\nsamples = 8\nvalue = 31.1"] ;
300 -> 301 ;
302 [label="SSM_12lag <= 1.8\nsquared_error = 17.4\nsamples = 2\nvalue = 22.3"] ;
301 -> 302 ;
303 [label="squared_error = 0.0\nsamples = 1\nvalue = 28.2"] ;
302 -> 303 ;
304 [label="squared_error = 0.0\nsamples = 1\nvalue = 19.3"] ;
302 -> 304 ;
305 [label="SSM_12lag <= 13.0\nsquared_error = 19.3\nsamples = 6\nvalue = 34.4"] ;
301 -> 305 ;
306 [label="Crops <= 277101.0\nsquared_error = 10.0\nsamples = 5\nvalue = 35.6"] ;
305 -> 306 ;
307 [label="squared_error = 0.0\nsamples = 1\nvalue = 41.0"] ;
306 -> 307 ;
308 [label="squared_error = 6.1\nsamples = 4\nvalue = 34.7"] ;
306 -> 308 ;
309 [label="squared_error = -0.0\nsamples = 1\nvalue = 25.8"] ;
305 -> 309 ;
310 [label="Soil_Temp_12lag <= 32.0\nsquared_error = 83.4\nsamples = 691\nvalue = 41.1"] ;
300 -> 310 ;
311 [label="Soil_Temp_12lag <= 31.1\nsquared_error = 84.9\nsamples = 258\nvalue = 40.2"] ;
310 -> 311 ;
312 [label="Crops <= 449909.5\nsquared_error = 85.1\nsamples = 195\nvalue = 41.1"] ;
311 -> 312 ;
313 [label="squared_error = 66.7\nsamples = 12\nvalue = 46.3"] ;
312 -> 313 ;
314 [label="squared_error = 84.6\nsamples = 183\nvalue = 40.8"] ;
312 -> 314 ;
315 [label="Crops <= 808556.0\nsquared_error = 75.3\nsamples = 63\nvalue = 37.6"] ;
311 -> 315 ;
316 [label="squared_error = 76.7\nsamples = 47\nvalue = 36.1"] ;
315 -> 316 ;
317 [label="squared_error = 38.1\nsamples = 16\nvalue = 42.6"] ;
315 -> 317 ;
318 [label="Crops <= 777724.5\nsquared_error = 81.7\nsamples = 433\nvalue = 41.6"] ;
310 -> 318 ;
319 [label="Crops <= 386857.0\nsquared_error = 82.2\nsamples = 275\nvalue = 42.4"] ;
318 -> 319 ;
320 [label="squared_error = 92.0\nsamples = 32\nvalue = 38.9"] ;
319 -> 320 ;
321 [label="squared_error = 79.2\nsamples = 243\nvalue = 42.8"] ;
319 -> 321 ;
322 [label="SSM_12lag <= 1.9\nsquared_error = 78.1\nsamples = 158\nvalue = 40.3"] ;
318 -> 322 ;
323 [label="squared_error = 2.7\nsamples = 2\nvalue = 23.9"] ;
322 -> 323 ;
324 [label="squared_error = 76.4\nsamples = 156\nvalue = 40.5"] ;
322 -> 324 ;
325 [label="Crops <= 932764.0\nsquared_error = 115.2\nsamples = 17\nvalue = 47.8"] ;
269 -> 325 ;
326 [label="SSM_12lag <= 15.9\nsquared_error = 116.2\nsamples = 8\nvalue = 52.8"] ;
325 -> 326 ;
327 [label="SSM_12lag <= 8.5\nsquared_error = 64.5\nsamples = 4\nvalue = 57.4"] ;
326 -> 327 ;
328 [label="SSM_12lag <= 4.7\nsquared_error = 28.0\nsamples = 2\nvalue = 49.1"] ;
327 -> 328 ;
329 [label="squared_error = 0.0\nsamples = 1\nvalue = 41.6"] ;
328 -> 329 ;
330 [label="squared_error = 0.0\nsamples = 1\nvalue = 52.9"] ;
328 -> 330 ;
331 [label="SSM_12lag <= 11.6\nsquared_error = 1.6\nsamples = 2\nvalue = 63.6"] ;
327 -> 331 ;
332 [label="squared_error = 0.0\nsamples = 1\nvalue = 61.5"] ;
331 -> 332 ;
333 [label="squared_error = 0.0\nsamples = 1\nvalue = 64.3"] ;
331 -> 333 ;
334 [label="SSM_12lag <= 21.4\nsquared_error = 117.4\nsamples = 4\nvalue = 46.4"] ;
326 -> 334 ;
335 [label="squared_error = 0.0\nsamples = 1\nvalue = 25.1"] ;
334 -> 335 ;
336 [label="Soil_Temp_12lag <= 28.1\nsquared_error = 6.2\nsamples = 3\nvalue = 51.7"] ;
334 -> 336 ;
337 [label="squared_error = 0.0\nsamples = 1\nvalue = 47.6"] ;
336 -> 337 ;
338 [label="SSM_12lag <= 25.0\nsquared_error = 0.9\nsamples = 2\nvalue = 53.0"] ;
336 -> 338 ;
339 [label="squared_error = 0.0\nsamples = 1\nvalue = 52.3"] ;
338 -> 339 ;
340 [label="squared_error = -0.0\nsamples = 1\nvalue = 54.4"] ;
338 -> 340 ;
341 [label="Crops <= 933377.0\nsquared_error = 75.2\nsamples = 9\nvalue = 43.6"] ;
325 -> 341 ;
342 [label="Soil_Temp_12lag <= 33.9\nsquared_error = 78.1\nsamples = 5\nvalue = 39.6"] ;
341 -> 342 ;
343 [label="SSM_12lag <= 17.9\nsquared_error = 57.9\nsamples = 2\nvalue = 34.0"] ;
342 -> 343 ;
344 [label="squared_error = 0.0\nsamples = 1\nvalue = 20.8"] ;
343 -> 344 ;
345 [label="squared_error = 0.0\nsamples = 1\nvalue = 38.4"] ;
343 -> 345 ;
346 [label="SSM_12lag <= 8.6\nsquared_error = 9.9\nsamples = 3\nvalue = 46.9"] ;
342 -> 346 ;
347 [label="squared_error = 0.0\nsamples = 1\nvalue = 51.4"] ;
346 -> 347 ;
348 [label="SSM_12lag <= 16.4\nsquared_error = 0.1\nsamples = 2\nvalue = 44.7"] ;
346 -> 348 ;
349 [label="squared_error = 0.0\nsamples = 1\nvalue = 45.0"] ;
348 -> 349 ;
350 [label="squared_error = 0.0\nsamples = 1\nvalue = 44.4"] ;
348 -> 350 ;
351 [label="Soil_Temp_12lag <= 38.7\nsquared_error = 39.8\nsamples = 4\nvalue = 47.6"] ;
341 -> 351 ;
352 [label="Soil_Temp_12lag <= 34.7\nsquared_error = 10.1\nsamples = 2\nvalue = 52.5"] ;
351 -> 352 ;
353 [label="squared_error = 0.0\nsamples = 1\nvalue = 55.7"] ;
352 -> 353 ;
354 [label="squared_error = -0.0\nsamples = 1\nvalue = 49.4"] ;
352 -> 354 ;
355 [label="Soil_Temp_12lag <= 40.9\nsquared_error = 4.3\nsamples = 2\nvalue = 41.1"] ;
351 -> 355 ;
356 [label="squared_error = 0.0\nsamples = 1\nvalue = 39.6"] ;
355 -> 356 ;
357 [label="squared_error = -0.0\nsamples = 1\nvalue = 44.0"] ;
355 -> 357 ;
358 [label="Crops <= 728829.5\nsquared_error = 95.1\nsamples = 17\nvalue = 34.0"] ;
268 -> 358 ;
359 [label="SSM_12lag <= 2.0\nsquared_error = 75.2\nsamples = 12\nvalue = 30.6"] ;
358 -> 359 ;
360 [label="Crops <= 671371.5\nsquared_error = 50.4\nsamples = 6\nvalue = 26.2"] ;
359 -> 360 ;
361 [label="Crops <= 485091.5\nsquared_error = 15.3\nsamples = 5\nvalue = 24.1"] ;
360 -> 361 ;
362 [label="Crops <= 446103.5\nsquared_error = 16.5\nsamples = 3\nvalue = 26.7"] ;
361 -> 362 ;
363 [label="SSM_12lag <= 1.4\nsquared_error = 3.0\nsamples = 2\nvalue = 24.5"] ;
362 -> 363 ;
364 [label="squared_error = 0.0\nsamples = 1\nvalue = 25.7"] ;
363 -> 364 ;
365 [label="squared_error = 0.0\nsamples = 1\nvalue = 22.1"] ;
363 -> 365 ;
366 [label="squared_error = -0.0\nsamples = 1\nvalue = 33.2"] ;
362 -> 366 ;
367 [label="Crops <= 593040.5\nsquared_error = 0.3\nsamples = 2\nvalue = 21.4"] ;
361 -> 367 ;
368 [label="squared_error = 0.0\nsamples = 1\nvalue = 20.5"] ;
367 -> 368 ;
369 [label="squared_error = 0.0\nsamples = 1\nvalue = 21.8"] ;
367 -> 369 ;
370 [label="squared_error = -0.0\nsamples = 1\nvalue = 43.4"] ;
360 -> 370 ;
371 [label="SSM_12lag <= 2.1\nsquared_error = 55.9\nsamples = 6\nvalue = 35.6"] ;
359 -> 371 ;
372 [label="Crops <= 544394.5\nsquared_error = 3.7\nsamples = 3\nvalue = 41.8"] ;
371 -> 372 ;
373 [label="squared_error = 0.0\nsamples = 1\nvalue = 38.8"] ;
372 -> 373 ;
374 [label="SSM_12lag <= 2.0\nsquared_error = 0.9\nsamples = 2\nvalue = 42.8"] ;
372 -> 374 ;
375 [label="squared_error = 0.0\nsamples = 1\nvalue = 44.1"] ;
374 -> 375 ;
376 [label="squared_error = 0.0\nsamples = 1\nvalue = 42.1"] ;
374 -> 376 ;
377 [label="SSM_12lag <= 2.8\nsquared_error = 33.0\nsamples = 3\nvalue = 29.5"] ;
371 -> 377 ;
378 [label="Crops <= 586505.5\nsquared_error = 10.5\nsamples = 2\nvalue = 26.6"] ;
377 -> 378 ;
379 [label="squared_error = 0.0\nsamples = 1\nvalue = 31.2"] ;
378 -> 379 ;
380 [label="squared_error = 0.0\nsamples = 1\nvalue = 24.3"] ;
378 -> 380 ;
381 [label="squared_error = 0.0\nsamples = 1\nvalue = 38.2"] ;
377 -> 381 ;
382 [label="SSM_12lag <= 2.2\nsquared_error = 29.2\nsamples = 5\nvalue = 43.5"] ;
358 -> 382 ;
383 [label="SSM_12lag <= 1.9\nsquared_error = 7.1\nsamples = 3\nvalue = 40.6"] ;
382 -> 383 ;
384 [label="squared_error = 0.0\nsamples = 1\nvalue = 42.8"] ;
383 -> 384 ;
385 [label="Crops <= 853378.0\nsquared_error = 4.4\nsamples = 2\nvalue = 38.4"] ;
383 -> 385 ;
386 [label="squared_error = 0.0\nsamples = 1\nvalue = 36.3"] ;
385 -> 386 ;
387 [label="squared_error = 0.0\nsamples = 1\nvalue = 40.5"] ;
385 -> 387 ;
388 [label="SSM_12lag <= 2.4\nsquared_error = 22.4\nsamples = 2\nvalue = 49.4"] ;
382 -> 388 ;
389 [label="squared_error = 0.0\nsamples = 1\nvalue = 54.1"] ;
388 -> 389 ;
390 [label="squared_error = -0.0\nsamples = 1\nvalue = 44.6"] ;
388 -> 390 ;
391 [label="Crops <= 1286006.0\nsquared_error = 93.5\nsamples = 1520\nvalue = 39.7"] ;
231 -> 391 ;
392 [label="Crops <= 1285810.5\nsquared_error = 92.9\nsamples = 831\nvalue = 39.0"] ;
391 -> 392 ;
393 [label="SSM_12lag <= 1.5\nsquared_error = 92.2\nsamples = 830\nvalue = 39.1"] ;
392 -> 393 ;
394 [label="Crops <= 1234066.0\nsquared_error = 10.3\nsamples = 6\nvalue = 49.8"] ;
393 -> 394 ;
395 [label="SSM_12lag <= 1.4\nsquared_error = 6.1\nsamples = 5\nvalue = 50.9"] ;
394 -> 395 ;
396 [label="SSM_12lag <= 1.4\nsquared_error = 7.2\nsamples = 3\nvalue = 52.8"] ;
395 -> 396 ;
397 [label="SSM_12lag <= 1.1\nsquared_error = 0.4\nsamples = 2\nvalue = 51.3"] ;
396 -> 397 ;
398 [label="squared_error = 0.0\nsamples = 1\nvalue = 50.8"] ;
397 -> 398 ;
399 [label="squared_error = -0.0\nsamples = 1\nvalue = 52.2"] ;
397 -> 399 ;
400 [label="squared_error = 0.0\nsamples = 1\nvalue = 57.4"] ;
396 -> 400 ;
401 [label="squared_error = -0.0\nsamples = 2\nvalue = 49.4"] ;
395 -> 401 ;
402 [label="squared_error = 0.0\nsamples = 1\nvalue = 44.9"] ;
394 -> 402 ;
403 [label="SSM_12lag <= 1.9\nsquared_error = 91.9\nsamples = 824\nvalue = 39.0"] ;
393 -> 403 ;
404 [label="Soil_Temp_12lag <= 35.6\nsquared_error = 92.1\nsamples = 35\nvalue = 33.9"] ;
403 -> 404 ;
405 [label="SSM_12lag <= 1.8\nsquared_error = 30.4\nsamples = 8\nvalue = 29.2"] ;
404 -> 405 ;
406 [label="Soil_Temp_12lag <= 32.5\nsquared_error = 20.9\nsamples = 6\nvalue = 24.7"] ;
405 -> 406 ;
407 [label="squared_error = 0.0\nsamples = 1\nvalue = 36.3"] ;
406 -> 407 ;
408 [label="SSM_12lag <= 1.6\nsquared_error = 2.2\nsamples = 5\nvalue = 23.1"] ;
406 -> 408 ;
409 [label="squared_error = 0.0\nsamples = 1\nvalue = 20.8"] ;
408 -> 409 ;
410 [label="squared_error = 1.6\nsamples = 4\nvalue = 23.5"] ;
408 -> 410 ;
411 [label="Crops <= 1148149.0\nsquared_error = 4.8\nsamples = 2\nvalue = 33.2"] ;
405 -> 411 ;
412 [label="squared_error = 0.0\nsamples = 1\nvalue = 32.1"] ;
411 -> 412 ;
413 [label="squared_error = 0.0\nsamples = 1\nvalue = 37.4"] ;
411 -> 413 ;
414 [label="SSM_12lag <= 1.9\nsquared_error = 106.0\nsamples = 27\nvalue = 36.1"] ;
404 -> 414 ;
415 [label="Soil_Temp_12lag <= 42.3\nsquared_error = 96.8\nsamples = 25\nvalue = 37.7"] ;
414 -> 415 ;
416 [label="Crops <= 1265396.0\nsquared_error = 60.1\nsamples = 17\nvalue = 39.8"] ;
415 -> 416 ;
417 [label="squared_error = 54.1\nsamples = 16\nvalue = 39.2"] ;
416 -> 417 ;
418 [label="squared_error = 0.0\nsamples = 1\nvalue = 53.1"] ;
416 -> 418 ;
419 [label="Soil_Temp_12lag <= 44.9\nsquared_error = 145.6\nsamples = 8\nvalue = 33.0"] ;
415 -> 419 ;
420 [label="squared_error = 109.9\nsamples = 7\nvalue = 30.7"] ;
419 -> 420 ;
421 [label="squared_error = 0.0\nsamples = 1\nvalue = 53.5"] ;
419 -> 421 ;
422 [label="Soil_Temp_12lag <= 42.5\nsquared_error = 2.9\nsamples = 2\nvalue = 23.6"] ;
414 -> 422 ;
423 [label="squared_error = 0.0\nsamples = 1\nvalue = 22.6"] ;
422 -> 423 ;
424 [label="squared_error = -0.0\nsamples = 1\nvalue = 26.5"] ;
422 -> 424 ;
425 [label="Crops <= 936074.5\nsquared_error = 90.7\nsamples = 789\nvalue = 39.2"] ;
403 -> 425 ;
426 [label="Soil_Temp_12lag <= 31.7\nsquared_error = 43.1\nsamples = 6\nvalue = 29.0"] ;
425 -> 426 ;
427 [label="Soil_Temp_12lag <= 29.6\nsquared_error = 21.8\nsamples = 3\nvalue = 35.8"] ;
426 -> 427 ;
428 [label="squared_error = 0.0\nsamples = 1\nvalue = 31.2"] ;
427 -> 428 ;
429 [label="SSM_12lag <= 10.0\nsquared_error = 1.5\nsamples = 2\nvalue = 40.3"] ;
427 -> 429 ;
430 [label="squared_error = 0.0\nsamples = 1\nvalue = 41.6"] ;
429 -> 430 ;
431 [label="squared_error = 0.0\nsamples = 1\nvalue = 39.1"] ;
429 -> 431 ;
432 [label="SSM_12lag <= 2.1\nsquared_error = 6.5\nsamples = 3\nvalue = 24.5"] ;
426 -> 432 ;
433 [label="squared_error = 0.0\nsamples = 1\nvalue = 30.1"] ;
432 -> 433 ;
434 [label="SSM_12lag <= 2.9\nsquared_error = 0.2\nsamples = 2\nvalue = 23.4"] ;
432 -> 434 ;
435 [label="squared_error = 0.0\nsamples = 1\nvalue = 23.6"] ;
434 -> 435 ;
436 [label="squared_error = -0.0\nsamples = 1\nvalue = 22.5"] ;
434 -> 436 ;
437 [label="Soil_Temp_12lag <= 30.8\nsquared_error = 90.3\nsamples = 783\nvalue = 39.3"] ;
425 -> 437 ;
438 [label="Soil_Temp_12lag <= 29.9\nsquared_error = 99.4\nsamples = 211\nvalue = 37.7"] ;
437 -> 438 ;
439 [label="Soil_Temp_12lag <= 27.5\nsquared_error = 104.1\nsamples = 124\nvalue = 39.4"] ;
438 -> 439 ;
440 [label="squared_error = 42.8\nsamples = 9\nvalue = 33.0"] ;
439 -> 440 ;
441 [label="squared_error = 105.5\nsamples = 115\nvalue = 39.9"] ;
439 -> 441 ;
442 [label="Soil_Temp_12lag <= 29.9\nsquared_error = 85.0\nsamples = 87\nvalue = 35.6"] ;
438 -> 442 ;
443 [label="squared_error = 29.4\nsamples = 4\nvalue = 25.4"] ;
442 -> 443 ;
444 [label="squared_error = 81.2\nsamples = 83\nvalue = 36.3"] ;
442 -> 444 ;
445 [label="Soil_Temp_12lag <= 31.0\nsquared_error = 85.8\nsamples = 572\nvalue = 39.8"] ;
437 -> 445 ;
446 [label="SSM_12lag <= 19.5\nsquared_error = 66.2\nsamples = 25\nvalue = 45.1"] ;
445 -> 446 ;
447 [label="squared_error = 41.7\nsamples = 18\nvalue = 41.8"] ;
446 -> 447 ;
448 [label="squared_error = 42.2\nsamples = 7\nvalue = 52.4"] ;
446 -> 448 ;
449 [label="Soil_Temp_12lag <= 31.1\nsquared_error = 85.4\nsamples = 547\nvalue = 39.6"] ;
445 -> 449 ;
450 [label="squared_error = 1.0\nsamples = 2\nvalue = 21.2"] ;
449 -> 450 ;
451 [label="squared_error = 84.2\nsamples = 545\nvalue = 39.7"] ;
449 -> 451 ;
452 [label="squared_error = 0.0\nsamples = 1\nvalue = 22.2"] ;
392 -> 452 ;
453 [label="Crops <= 1366273.5\nsquared_error = 93.0\nsamples = 689\nvalue = 40.5"] ;
391 -> 453 ;
454 [label="SSM_12lag <= 2.3\nsquared_error = 100.6\nsamples = 236\nvalue = 42.3"] ;
453 -> 454 ;
455 [label="Crops <= 1359322.0\nsquared_error = 89.6\nsamples = 68\nvalue = 38.6"] ;
454 -> 455 ;
456 [label="Crops <= 1291421.5\nsquared_error = 88.5\nsamples = 53\nvalue = 36.9"] ;
455 -> 456 ;
457 [label="Crops <= 1289753.5\nsquared_error = 92.0\nsamples = 6\nvalue = 48.5"] ;
456 -> 457 ;
458 [label="SSM_12lag <= 2.0\nsquared_error = 34.2\nsamples = 4\nvalue = 41.6"] ;
457 -> 458 ;
459 [label="squared_error = 0.0\nsamples = 1\nvalue = 31.7"] ;
458 -> 459 ;
460 [label="Crops <= 1287759.0\nsquared_error = 2.5\nsamples = 3\nvalue = 44.9"] ;
458 -> 460 ;
461 [label="squared_error = 0.0\nsamples = 1\nvalue = 47.1"] ;
460 -> 461 ;
462 [label="squared_error = 0.0\nsamples = 2\nvalue = 43.7"] ;
460 -> 462 ;
463 [label="SSM_12lag <= 1.9\nsquared_error = 19.5\nsamples = 2\nvalue = 57.7"] ;
457 -> 463 ;
464 [label="squared_error = 0.0\nsamples = 1\nvalue = 64.0"] ;
463 -> 464 ;
465 [label="squared_error = 0.0\nsamples = 1\nvalue = 54.6"] ;
463 -> 465 ;
466 [label="SSM_12lag <= 2.1\nsquared_error = 72.7\nsamples = 47\nvalue = 35.7"] ;
456 -> 466 ;
467 [label="SSM_12lag <= 1.9\nsquared_error = 71.5\nsamples = 33\nvalue = 37.7"] ;
466 -> 467 ;
468 [label="SSM_12lag <= 1.9\nsquared_error = 50.8\nsamples = 9\nvalue = 32.4"] ;
467 -> 468 ;
469 [label="squared_error = 25.8\nsamples = 6\nvalue = 34.8"] ;
468 -> 469 ;
470 [label="squared_error = 63.3\nsamples = 3\nvalue = 26.7"] ;
468 -> 470 ;
471 [label="Soil_Temp_12lag <= 32.7\nsquared_error = 66.4\nsamples = 24\nvalue = 39.3"] ;
467 -> 471 ;
472 [label="squared_error = 0.0\nsamples = 1\nvalue = 23.6"] ;
471 -> 472 ;
473 [label="squared_error = 60.3\nsamples = 23\nvalue = 39.8"] ;
471 -> 473 ;
474 [label="SSM_12lag <= 2.1\nsquared_error = 57.7\nsamples = 14\nvalue = 32.5"] ;
466 -> 474 ;
475 [label="SSM_12lag <= 2.1\nsquared_error = 1.5\nsamples = 3\nvalue = 25.6"] ;
474 -> 475 ;
476 [label="squared_error = 0.1\nsamples = 2\nvalue = 26.8"] ;
475 -> 476 ;
477 [label="squared_error = 0.0\nsamples = 1\nvalue = 24.3"] ;
475 -> 477 ;
478 [label="Soil_Temp_12lag <= 43.0\nsquared_error = 55.8\nsamples = 11\nvalue = 34.6"] ;
474 -> 478 ;
479 [label="squared_error = 12.5\nsamples = 8\nvalue = 39.9"] ;
478 -> 479 ;
480 [label="squared_error = 37.6\nsamples = 3\nvalue = 28.7"] ;
478 -> 480 ;
481 [label="Soil_Temp_12lag <= 33.7\nsquared_error = 58.8\nsamples = 15\nvalue = 43.7"] ;
455 -> 481 ;
482 [label="squared_error = 0.0\nsamples = 1\nvalue = 56.6"] ;
481 -> 482 ;
483 [label="Soil_Temp_12lag <= 44.2\nsquared_error = 40.9\nsamples = 14\nvalue = 41.9"] ;
481 -> 483 ;
484 [label="Soil_Temp_12lag <= 42.4\nsquared_error = 43.4\nsamples = 11\nvalue = 40.6"] ;
483 -> 484 ;
485 [label="Crops <= 1360155.0\nsquared_error = 31.6\nsamples = 9\nvalue = 41.7"] ;
484 -> 485 ;
486 [label="squared_error = 0.6\nsamples = 2\nvalue = 45.8"] ;
485 -> 486 ;
487 [label="squared_error = 34.4\nsamples = 7\nvalue = 40.2"] ;
485 -> 487 ;
488 [label="Crops <= 1365299.0\nsquared_error = 55.0\nsamples = 2\nvalue = 32.3"] ;
484 -> 488 ;
489 [label="squared_error = 0.0\nsamples = 1\nvalue = 39.8"] ;
488 -> 489 ;
490 [label="squared_error = -0.0\nsamples = 1\nvalue = 24.9"] ;
488 -> 490 ;
491 [label="Crops <= 1360155.0\nsquared_error = 6.0\nsamples = 3\nvalue = 46.4"] ;
483 -> 491 ;
492 [label="squared_error = 0.0\nsamples = 1\nvalue = 41.5"] ;
491 -> 492 ;
493 [label="SSM_12lag <= 1.9\nsquared_error = 0.0\nsamples = 2\nvalue = 47.6"] ;
491 -> 493 ;
494 [label="squared_error = 0.0\nsamples = 1\nvalue = 47.7"] ;
493 -> 494 ;
495 [label="squared_error = 0.0\nsamples = 1\nvalue = 47.4"] ;
493 -> 495 ;
496 [label="Crops <= 1330989.0\nsquared_error = 97.7\nsamples = 168\nvalue = 43.7"] ;
454 -> 496 ;
497 [label="Crops <= 1323165.5\nsquared_error = 69.7\nsamples = 94\nvalue = 41.5"] ;
496 -> 497 ;
498 [label="Crops <= 1317649.0\nsquared_error = 60.5\nsamples = 66\nvalue = 43.0"] ;
497 -> 498 ;
499 [label="SSM_12lag <= 2.4\nsquared_error = 47.0\nsamples = 61\nvalue = 42.1"] ;
498 -> 499 ;
500 [label="SSM_12lag <= 2.4\nsquared_error = 34.4\nsamples = 5\nvalue = 48.2"] ;
499 -> 500 ;
501 [label="squared_error = 16.7\nsamples = 3\nvalue = 43.1"] ;
500 -> 501 ;
502 [label="squared_error = 0.2\nsamples = 2\nvalue = 53.3"] ;
500 -> 502 ;
503 [label="Soil_Temp_12lag <= 32.9\nsquared_error = 43.5\nsamples = 56\nvalue = 41.4"] ;
499 -> 503 ;
504 [label="squared_error = 43.8\nsamples = 36\nvalue = 39.9"] ;
503 -> 504 ;
505 [label="squared_error = 34.2\nsamples = 20\nvalue = 43.7"] ;
503 -> 505 ;
506 [label="Soil_Temp_12lag <= 38.2\nsquared_error = 89.5\nsamples = 5\nvalue = 55.1"] ;
498 -> 506 ;
507 [label="SSM_12lag <= 8.4\nsquared_error = 19.7\nsamples = 4\nvalue = 60.6"] ;
506 -> 507 ;
508 [label="squared_error = 0.0\nsamples = 1\nvalue = 52.0"] ;
507 -> 508 ;
509 [label="squared_error = 1.8\nsamples = 3\nvalue = 62.7"] ;
507 -> 509 ;
510 [label="squared_error = 0.0\nsamples = 1\nvalue = 41.3"] ;
506 -> 510 ;
511 [label="Crops <= 1324701.5\nsquared_error = 75.0\nsamples = 28\nvalue = 38.0"] ;
497 -> 511 ;
512 [label="SSM_12lag <= 5.7\nsquared_error = 65.6\nsamples = 8\nvalue = 33.9"] ;
511 -> 512 ;
513 [label="squared_error = 0.0\nsamples = 1\nvalue = 19.6"] ;
512 -> 513 ;
514 [label="Soil_Temp_12lag <= 31.3\nsquared_error = 29.8\nsamples = 7\nvalue = 36.8"] ;
512 -> 514 ;
515 [label="squared_error = 0.2\nsamples = 2\nvalue = 42.2"] ;
514 -> 515 ;
516 [label="squared_error = 16.3\nsamples = 5\nvalue = 33.1"] ;
514 -> 516 ;
517 [label="Crops <= 1329971.5\nsquared_error = 69.2\nsamples = 20\nvalue = 39.7"] ;
511 -> 517 ;
518 [label="Soil_Temp_12lag <= 35.6\nsquared_error = 65.2\nsamples = 14\nvalue = 41.1"] ;
517 -> 518 ;
519 [label="squared_error = 27.3\nsamples = 8\nvalue = 43.0"] ;
518 -> 519 ;
520 [label="squared_error = 104.6\nsamples = 6\nvalue = 38.8"] ;
518 -> 520 ;
521 [label="Soil_Temp_12lag <= 29.7\nsquared_error = 43.9\nsamples = 6\nvalue = 34.0"] ;
517 -> 521 ;
522 [label="squared_error = 2.3\nsamples = 2\nvalue = 39.9"] ;
521 -> 522 ;
523 [label="squared_error = 38.2\nsamples = 4\nvalue = 31.0"] ;
521 -> 523 ;
524 [label="SSM_12lag <= 2.4\nsquared_error = 119.5\nsamples = 74\nvalue = 46.3"] ;
496 -> 524 ;
525 [label="SSM_12lag <= 2.3\nsquared_error = 0.0\nsamples = 2\nvalue = 60.0"] ;
524 -> 525 ;
526 [label="squared_error = 0.0\nsamples = 1\nvalue = 60.0"] ;
525 -> 526 ;
527 [label="squared_error = -0.0\nsamples = 1\nvalue = 60.0"] ;
525 -> 527 ;
528 [label="Soil_Temp_12lag <= 29.4\nsquared_error = 116.1\nsamples = 72\nvalue = 45.7"] ;
524 -> 528 ;
529 [label="Crops <= 1351910.0\nsquared_error = 120.2\nsamples = 17\nvalue = 51.2"] ;
528 -> 529 ;
530 [label="Soil_Temp_12lag <= 29.3\nsquared_error = 79.8\nsamples = 10\nvalue = 45.5"] ;
529 -> 530 ;
531 [label="squared_error = 45.5\nsamples = 9\nvalue = 42.2"] ;
530 -> 531 ;
532 [label="squared_error = 0.0\nsamples = 1\nvalue = 58.6"] ;
530 -> 532 ;
533 [label="Soil_Temp_12lag <= 29.2\nsquared_error = 83.9\nsamples = 7\nvalue = 57.9"] ;
529 -> 533 ;
534 [label="squared_error = 25.2\nsamples = 4\nvalue = 63.1"] ;
533 -> 534 ;
535 [label="squared_error = 15.0\nsamples = 3\nvalue = 46.1"] ;
533 -> 535 ;
536 [label="Soil_Temp_12lag <= 30.8\nsquared_error = 101.3\nsamples = 55\nvalue = 43.9"] ;
528 -> 536 ;
537 [label="Crops <= 1361664.0\nsquared_error = 109.2\nsamples = 20\nvalue = 37.7"] ;
536 -> 537 ;
538 [label="squared_error = 98.9\nsamples = 18\nvalue = 38.9"] ;
537 -> 538 ;
539 [label="squared_error = 91.3\nsamples = 2\nvalue = 28.4"] ;
537 -> 539 ;
540 [label="Crops <= 1333048.0\nsquared_error = 73.6\nsamples = 35\nvalue = 46.6"] ;
536 -> 540 ;
541 [label="squared_error = 67.3\nsamples = 3\nvalue = 55.5"] ;
540 -> 541 ;
542 [label="squared_error = 66.2\nsamples = 32\nvalue = 45.8"] ;
540 -> 542 ;
543 [label="SSM_12lag <= 1.5\nsquared_error = 86.8\nsamples = 453\nvalue = 39.6"] ;
453 -> 543 ;
544 [label="SSM_12lag <= 1.5\nsquared_error = 20.6\nsamples = 3\nvalue = 25.7"] ;
543 -> 544 ;
545 [label="SSM_12lag <= 1.5\nsquared_error = 0.4\nsamples = 2\nvalue = 29.6"] ;
544 -> 545 ;
546 [label="squared_error = 0.0\nsamples = 1\nvalue = 30.3"] ;
545 -> 546 ;
547 [label="squared_error = 0.0\nsamples = 1\nvalue = 29.0"] ;
545 -> 547 ;
548 [label="squared_error = -0.0\nsamples = 1\nvalue = 20.5"] ;
544 -> 548 ;
549 [label="Soil_Temp_12lag <= 27.9\nsquared_error = 85.5\nsamples = 450\nvalue = 39.7"] ;
543 -> 549 ;
550 [label="Soil_Temp_12lag <= 27.5\nsquared_error = 70.2\nsamples = 6\nvalue = 28.8"] ;
549 -> 550 ;
551 [label="Crops <= 1411031.5\nsquared_error = 57.2\nsamples = 3\nvalue = 36.2"] ;
550 -> 551 ;
552 [label="squared_error = 0.0\nsamples = 1\nvalue = 28.8"] ;
551 -> 552 ;
553 [label="Soil_Temp_12lag <= 27.3\nsquared_error = 6.2\nsamples = 2\nvalue = 43.5"] ;
551 -> 553 ;
554 [label="squared_error = 0.0\nsamples = 1\nvalue = 41.1"] ;
553 -> 554 ;
555 [label="squared_error = 0.0\nsamples = 1\nvalue = 46.0"] ;
553 -> 555 ;
556 [label="SSM_12lag <= 21.3\nsquared_error = 3.1\nsamples = 3\nvalue = 23.0"] ;
550 -> 556 ;
557 [label="squared_error = 0.0\nsamples = 1\nvalue = 21.0"] ;
556 -> 557 ;
558 [label="SSM_12lag <= 23.3\nsquared_error = 0.6\nsamples = 2\nvalue = 24.3"] ;
556 -> 558 ;
559 [label="squared_error = 0.0\nsamples = 1\nvalue = 23.8"] ;
558 -> 559 ;
560 [label="squared_error = 0.0\nsamples = 1\nvalue = 25.4"] ;
558 -> 560 ;
561 [label="SSM_12lag <= 24.6\nsquared_error = 84.2\nsamples = 444\nvalue = 39.8"] ;
549 -> 561 ;
562 [label="SSM_12lag <= 1.9\nsquared_error = 83.3\nsamples = 436\nvalue = 40.0"] ;
561 -> 562 ;
563 [label="Crops <= 1546372.0\nsquared_error = 49.6\nsamples = 30\nvalue = 43.6"] ;
562 -> 563 ;
564 [label="Crops <= 1409855.5\nsquared_error = 42.2\nsamples = 26\nvalue = 44.8"] ;
563 -> 564 ;
565 [label="squared_error = 2.7\nsamples = 5\nvalue = 38.6"] ;
564 -> 565 ;
566 [label="squared_error = 39.8\nsamples = 21\nvalue = 46.5"] ;
564 -> 566 ;
567 [label="Crops <= 1553028.5\nsquared_error = 30.3\nsamples = 4\nvalue = 36.0"] ;
563 -> 567 ;
568 [label="squared_error = 0.0\nsamples = 1\nvalue = 24.4"] ;
567 -> 568 ;
569 [label="squared_error = 12.7\nsamples = 3\nvalue = 37.6"] ;
567 -> 569 ;
570 [label="Soil_Temp_12lag <= 44.3\nsquared_error = 85.1\nsamples = 406\nvalue = 39.7"] ;
562 -> 570 ;
571 [label="Crops <= 1370663.5\nsquared_error = 83.3\nsamples = 393\nvalue = 39.8"] ;
570 -> 571 ;
572 [label="squared_error = 80.0\nsamples = 10\nvalue = 33.0"] ;
571 -> 572 ;
573 [label="squared_error = 81.9\nsamples = 383\nvalue = 40.1"] ;
571 -> 573 ;
574 [label="Crops <= 1377323.5\nsquared_error = 101.2\nsamples = 13\nvalue = 33.4"] ;
570 -> 574 ;
575 [label="squared_error = 9.6\nsamples = 2\nvalue = 48.4"] ;
574 -> 575 ;
576 [label="squared_error = 68.0\nsamples = 11\nvalue = 30.6"] ;
574 -> 576 ;
577 [label="Soil_Temp_12lag <= 28.7\nsquared_error = 56.8\nsamples = 8\nvalue = 31.1"] ;
561 -> 577 ;
578 [label="Crops <= 1468470.5\nsquared_error = 28.9\nsamples = 2\nvalue = 39.8"] ;
577 -> 578 ;
579 [label="squared_error = 0.0\nsamples = 1\nvalue = 36.0"] ;
578 -> 579 ;
580 [label="squared_error = 0.0\nsamples = 1\nvalue = 47.4"] ;
578 -> 580 ;
581 [label="Soil_Temp_12lag <= 30.8\nsquared_error = 35.5\nsamples = 6\nvalue = 28.4"] ;
577 -> 581 ;
582 [label="Soil_Temp_12lag <= 29.7\nsquared_error = 21.3\nsamples = 5\nvalue = 27.1"] ;
581 -> 582 ;
583 [label="squared_error = 16.1\nsamples = 3\nvalue = 29.4"] ;
582 -> 583 ;
584 [label="squared_error = 0.4\nsamples = 2\nvalue = 22.5"] ;
582 -> 584 ;
585 [label="squared_error = -0.0\nsamples = 1\nvalue = 40.6"] ;
581 -> 585 ;
586 [label="Crops <= 2182877.5\nsquared_error = 83.3\nsamples = 1040\nvalue = 37.8"] ;
230 -> 586 ;
587 [label="Crops <= 2147012.5\nsquared_error = 87.6\nsamples = 824\nvalue = 38.2"] ;
586 -> 587 ;
588 [label="SSM_12lag <= 1.9\nsquared_error = 85.3\nsamples = 799\nvalue = 38.0"] ;
587 -> 588 ;
589 [label="Crops <= 1575272.5\nsquared_error = 96.0\nsamples = 58\nvalue = 35.2"] ;
588 -> 589 ;
590 [label="squared_error = 0.0\nsamples = 1\nvalue = 19.7"] ;
589 -> 590 ;
591 [label="Soil_Temp_12lag <= 31.9\nsquared_error = 90.7\nsamples = 57\nvalue = 35.8"] ;
589 -> 591 ;
592 [label="SSM_12lag <= 1.8\nsquared_error = 208.1\nsamples = 3\nvalue = 28.2"] ;
591 -> 592 ;
593 [label="squared_error = 0.0\nsamples = 1\nvalue = 53.2"] ;
592 -> 593 ;
594 [label="Crops <= 1914526.5\nsquared_error = 0.1\nsamples = 2\nvalue = 19.9"] ;
592 -> 594 ;
595 [label="squared_error = 0.0\nsamples = 1\nvalue = 19.7"] ;
594 -> 595 ;
596 [label="squared_error = -0.0\nsamples = 1\nvalue = 20.4"] ;
594 -> 596 ;
597 [label="Crops <= 2051661.5\nsquared_error = 72.3\nsamples = 54\nvalue = 36.5"] ;
591 -> 597 ;
598 [label="Crops <= 1788240.5\nsquared_error = 70.4\nsamples = 45\nvalue = 37.6"] ;
597 -> 598 ;
599 [label="Crops <= 1743674.0\nsquared_error = 61.7\nsamples = 21\nvalue = 33.9"] ;
598 -> 599 ;
600 [label="Crops <= 1713624.0\nsquared_error = 54.5\nsamples = 17\nvalue = 35.4"] ;
599 -> 600 ;
601 [label="squared_error = 43.1\nsamples = 14\nvalue = 33.9"] ;
600 -> 601 ;
602 [label="squared_error = 22.0\nsamples = 3\nvalue = 45.1"] ;
600 -> 602 ;
603 [label="SSM_12lag <= 1.9\nsquared_error = 37.5\nsamples = 4\nvalue = 27.0"] ;
599 -> 603 ;
604 [label="squared_error = 0.0\nsamples = 1\nvalue = 35.3"] ;
603 -> 604 ;
605 [label="squared_error = 25.5\nsamples = 3\nvalue = 25.0"] ;
603 -> 605 ;
606 [label="Soil_Temp_12lag <= 42.0\nsquared_error = 56.8\nsamples = 24\nvalue = 40.7"] ;
598 -> 606 ;
607 [label="Soil_Temp_12lag <= 36.7\nsquared_error = 48.4\nsamples = 14\nvalue = 43.2"] ;
606 -> 607 ;
608 [label="squared_error = 67.0\nsamples = 3\nvalue = 36.6"] ;
607 -> 608 ;
609 [label="squared_error = 28.6\nsamples = 11\nvalue = 44.9"] ;
607 -> 609 ;
610 [label="SSM_12lag <= 1.9\nsquared_error = 49.7\nsamples = 10\nvalue = 37.5"] ;
606 -> 610 ;
611 [label="squared_error = 29.3\nsamples = 9\nvalue = 35.6"] ;
610 -> 611 ;
612 [label="squared_error = 0.0\nsamples = 1\nvalue = 50.1"] ;
610 -> 612 ;
613 [label="SSM_12lag <= 1.9\nsquared_error = 57.1\nsamples = 9\nvalue = 32.3"] ;
597 -> 613 ;
614 [label="SSM_12lag <= 1.8\nsquared_error = 50.4\nsamples = 5\nvalue = 28.3"] ;
613 -> 614 ;
615 [label="Soil_Temp_12lag <= 39.6\nsquared_error = 2.4\nsamples = 2\nvalue = 35.7"] ;
614 -> 615 ;
616 [label="squared_error = 0.0\nsamples = 1\nvalue = 38.4"] ;
615 -> 616 ;
617 [label="squared_error = 0.0\nsamples = 1\nvalue = 34.8"] ;
615 -> 617 ;
618 [label="SSM_12lag <= 1.9\nsquared_error = 9.2\nsamples = 3\nvalue = 22.3"] ;
614 -> 618 ;
619 [label="squared_error = 0.0\nsamples = 2\nvalue = 19.8"] ;
618 -> 619 ;
620 [label="squared_error = -0.0\nsamples = 1\nvalue = 26.0"] ;
618 -> 620 ;
621 [label="Crops <= 2091299.0\nsquared_error = 17.7\nsamples = 4\nvalue = 37.5"] ;
613 -> 621 ;
622 [label="Crops <= 2078141.0\nsquared_error = 2.3\nsamples = 2\nvalue = 42.2"] ;
621 -> 622 ;
623 [label="squared_error = 0.0\nsamples = 1\nvalue = 43.2"] ;
622 -> 623 ;
624 [label="squared_error = -0.0\nsamples = 1\nvalue = 40.0"] ;
622 -> 624 ;
625 [label="SSM_12lag <= 1.9\nsquared_error = 0.6\nsamples = 2\nvalue = 34.0"] ;
621 -> 625 ;
626 [label="squared_error = 0.0\nsamples = 1\nvalue = 33.3"] ;
625 -> 626 ;
627 [label="squared_error = -0.0\nsamples = 1\nvalue = 34.8"] ;
625 -> 627 ;
628 [label="SSM_12lag <= 25.1\nsquared_error = 83.9\nsamples = 741\nvalue = 38.2"] ;
588 -> 628 ;
629 [label="SSM_12lag <= 20.0\nsquared_error = 83.5\nsamples = 740\nvalue = 38.2"] ;
628 -> 629 ;
630 [label="Soil_Temp_12lag <= 34.4\nsquared_error = 83.4\nsamples = 597\nvalue = 38.5"] ;
629 -> 630 ;
631 [label="Soil_Temp_12lag <= 34.3\nsquared_error = 81.1\nsamples = 261\nvalue = 39.6"] ;
630 -> 631 ;
632 [label="SSM_12lag <= 19.1\nsquared_error = 78.9\nsamples = 256\nvalue = 39.2"] ;
631 -> 632 ;
633 [label="Soil_Temp_12lag <= 32.9\nsquared_error = 76.0\nsamples = 234\nvalue = 38.8"] ;
632 -> 633 ;
634 [label="squared_error = 76.5\nsamples = 177\nvalue = 39.4"] ;
633 -> 634 ;
635 [label="squared_error = 70.4\nsamples = 57\nvalue = 37.0"] ;
633 -> 635 ;
636 [label="Crops <= 1955636.5\nsquared_error = 90.8\nsamples = 22\nvalue = 42.9"] ;
632 -> 636 ;
637 [label="squared_error = 74.4\nsamples = 19\nvalue = 44.8"] ;
636 -> 637 ;
638 [label="squared_error = 57.1\nsamples = 3\nvalue = 32.7"] ;
636 -> 638 ;
639 [label="SSM_12lag <= 2.1\nsquared_error = 21.7\nsamples = 5\nvalue = 50.6"] ;
631 -> 639 ;
640 [label="squared_error = -0.0\nsamples = 1\nvalue = 54.7"] ;
639 -> 640 ;
641 [label="Crops <= 1634107.5\nsquared_error = 9.6\nsamples = 4\nvalue = 46.4"] ;
639 -> 641 ;
642 [label="squared_error = 0.0\nsamples = 1\nvalue = 42.2"] ;
641 -> 642 ;
643 [label="squared_error = 3.5\nsamples = 3\nvalue = 48.1"] ;
641 -> 643 ;
644 [label="SSM_12lag <= 13.4\nsquared_error = 83.8\nsamples = 336\nvalue = 37.7"] ;
630 -> 644 ;
645 [label="SSM_12lag <= 11.5\nsquared_error = 83.0\nsamples = 261\nvalue = 37.0"] ;
644 -> 645 ;
646 [label="Soil_Temp_12lag <= 34.6\nsquared_error = 78.6\nsamples = 237\nvalue = 37.6"] ;
645 -> 646 ;
647 [label="squared_error = 62.0\nsamples = 5\nvalue = 27.8"] ;
646 -> 647 ;
648 [label="squared_error = 77.0\nsamples = 232\nvalue = 37.8"] ;
646 -> 648 ;
649 [label="Soil_Temp_12lag <= 38.6\nsquared_error = 96.1\nsamples = 24\nvalue = 32.4"] ;
645 -> 649 ;
650 [label="squared_error = 33.6\nsamples = 10\nvalue = 24.9"] ;
649 -> 650 ;
651 [label="squared_error = 60.2\nsamples = 14\nvalue = 38.8"] ;
649 -> 651 ;
652 [label="Crops <= 2126462.0\nsquared_error = 80.1\nsamples = 75\nvalue = 39.9"] ;
644 -> 652 ;
653 [label="Crops <= 2113577.5\nsquared_error = 77.0\nsamples = 74\nvalue = 40.2"] ;
652 -> 653 ;
654 [label="squared_error = 70.7\nsamples = 72\nvalue = 39.7"] ;
653 -> 654 ;
655 [label="squared_error = 94.3\nsamples = 2\nvalue = 49.7"] ;
653 -> 655 ;
656 [label="squared_error = 0.0\nsamples = 1\nvalue = 24.0"] ;
652 -> 656 ;
657 [label="Soil_Temp_12lag <= 33.1\nsquared_error = 81.7\nsamples = 143\nvalue = 37.0"] ;
629 -> 657 ;
658 [label="SSM_12lag <= 20.3\nsquared_error = 84.4\nsamples = 120\nvalue = 36.2"] ;
657 -> 658 ;
659 [label="SSM_12lag <= 20.2\nsquared_error = 37.9\nsamples = 5\nvalue = 25.9"] ;
658 -> 659 ;
660 [label="Soil_Temp_12lag <= 28.6\nsquared_error = 28.0\nsamples = 3\nvalue = 29.0"] ;
659 -> 660 ;
661 [label="squared_error = 0.0\nsamples = 1\nvalue = 22.4"] ;
660 -> 661 ;
662 [label="squared_error = 9.7\nsamples = 2\nvalue = 32.3"] ;
660 -> 662 ;
663 [label="SSM_12lag <= 20.2\nsquared_error = 0.0\nsamples = 2\nvalue = 19.7"] ;
659 -> 663 ;
664 [label="squared_error = 0.0\nsamples = 1\nvalue = 19.4"] ;
663 -> 664 ;
665 [label="squared_error = -0.0\nsamples = 1\nvalue = 19.8"] ;
663 -> 665 ;
666 [label="Crops <= 2026620.0\nsquared_error = 81.1\nsamples = 115\nvalue = 36.7"] ;
658 -> 666 ;
667 [label="Soil_Temp_12lag <= 29.0\nsquared_error = 80.8\nsamples = 94\nvalue = 37.6"] ;
666 -> 667 ;
668 [label="squared_error = 30.6\nsamples = 20\nvalue = 40.6"] ;
667 -> 668 ;
669 [label="squared_error = 90.0\nsamples = 74\nvalue = 36.9"] ;
667 -> 669 ;
670 [label="Crops <= 2071938.5\nsquared_error = 60.2\nsamples = 21\nvalue = 32.4"] ;
666 -> 670 ;
671 [label="squared_error = 49.2\nsamples = 12\nvalue = 29.3"] ;
670 -> 671 ;
672 [label="squared_error = 37.1\nsamples = 9\nvalue = 37.4"] ;
670 -> 672 ;
673 [label="Crops <= 1674416.0\nsquared_error = 51.2\nsamples = 23\nvalue = 40.8"] ;
657 -> 673 ;
674 [label="squared_error = 0.0\nsamples = 1\nvalue = 25.8"] ;
673 -> 674 ;
675 [label="SSM_12lag <= 21.8\nsquared_error = 40.9\nsamples = 22\nvalue = 41.6"] ;
673 -> 675 ;
676 [label="Soil_Temp_12lag <= 33.5\nsquared_error = 20.6\nsamples = 11\nvalue = 44.7"] ;
675 -> 676 ;
677 [label="squared_error = 1.2\nsamples = 2\nvalue = 38.8"] ;
676 -> 677 ;
678 [label="squared_error = 15.2\nsamples = 9\nvalue = 46.1"] ;
676 -> 678 ;
679 [label="SSM_12lag <= 22.1\nsquared_error = 43.0\nsamples = 11\nvalue = 39.1"] ;
675 -> 679 ;
680 [label="squared_error = 0.0\nsamples = 1\nvalue = 23.9"] ;
679 -> 680 ;
681 [label="squared_error = 19.3\nsamples = 10\nvalue = 40.8"] ;
679 -> 681 ;
682 [label="squared_error = 0.0\nsamples = 1\nvalue = 20.4"] ;
628 -> 682 ;
683 [label="SSM_12lag <= 1.9\nsquared_error = 129.7\nsamples = 25\nvalue = 43.4"] ;
587 -> 683 ;
684 [label="SSM_12lag <= 1.9\nsquared_error = 95.7\nsamples = 2\nvalue = 58.2"] ;
683 -> 684 ;
685 [label="squared_error = 0.0\nsamples = 1\nvalue = 34.3"] ;
684 -> 685 ;
686 [label="squared_error = 0.0\nsamples = 1\nvalue = 62.2"] ;
684 -> 686 ;
687 [label="Soil_Temp_12lag <= 33.4\nsquared_error = 80.4\nsamples = 23\nvalue = 40.2"] ;
683 -> 687 ;
688 [label="SSM_12lag <= 4.5\nsquared_error = 70.3\nsamples = 12\nvalue = 43.8"] ;
687 -> 688 ;
689 [label="squared_error = 0.0\nsamples = 1\nvalue = 53.1"] ;
688 -> 689 ;
690 [label="SSM_12lag <= 9.9\nsquared_error = 66.5\nsamples = 11\nvalue = 42.5"] ;
688 -> 690 ;
691 [label="Soil_Temp_12lag <= 30.2\nsquared_error = 56.7\nsamples = 4\nvalue = 37.2"] ;
690 -> 691 ;
692 [label="SSM_12lag <= 5.2\nsquared_error = 4.1\nsamples = 3\nvalue = 40.4"] ;
691 -> 692 ;
693 [label="squared_error = 0.0\nsamples = 1\nvalue = 36.8"] ;
692 -> 693 ;
694 [label="Crops <= 2173213.0\nsquared_error = 1.0\nsamples = 2\nvalue = 41.4"] ;
692 -> 694 ;
695 [label="squared_error = 0.0\nsamples = 1\nvalue = 42.4"] ;
694 -> 695 ;
696 [label="squared_error = -0.0\nsamples = 1\nvalue = 40.3"] ;
694 -> 696 ;
697 [label="squared_error = 0.0\nsamples = 1\nvalue = 20.9"] ;
691 -> 697 ;
698 [label="SSM_12lag <= 23.3\nsquared_error = 36.2\nsamples = 7\nvalue = 46.5"] ;
690 -> 698 ;
699 [label="SSM_12lag <= 14.4\nsquared_error = 8.1\nsamples = 5\nvalue = 49.5"] ;
698 -> 699 ;
700 [label="squared_error = 0.0\nsamples = 1\nvalue = 53.9"] ;
699 -> 700 ;
701 [label="Crops <= 2148937.5\nsquared_error = 5.2\nsamples = 4\nvalue = 48.7"] ;
699 -> 701 ;
702 [label="squared_error = 0.0\nsamples = 1\nvalue = 51.4"] ;
701 -> 702 ;
703 [label="squared_error = 0.1\nsamples = 3\nvalue = 46.8"] ;
701 -> 703 ;
704 [label="SSM_12lag <= 23.7\nsquared_error = 12.2\nsamples = 2\nvalue = 37.5"] ;
698 -> 704 ;
705 [label="squared_error = 0.0\nsamples = 1\nvalue = 41.0"] ;
704 -> 705 ;
706 [label="squared_error = 0.0\nsamples = 1\nvalue = 34.0"] ;
704 -> 706 ;
707 [label="SSM_12lag <= 21.1\nsquared_error = 66.1\nsamples = 11\nvalue = 36.9"] ;
687 -> 707 ;
708 [label="SSM_12lag <= 2.7\nsquared_error = 42.9\nsamples = 10\nvalue = 35.6"] ;
707 -> 708 ;
709 [label="SSM_12lag <= 2.0\nsquared_error = 15.6\nsamples = 4\nvalue = 39.0"] ;
708 -> 709 ;
710 [label="squared_error = 0.0\nsamples = 1\nvalue = 34.6"] ;
709 -> 710 ;
711 [label="Soil_Temp_12lag <= 36.4\nsquared_error = 2.2\nsamples = 3\nvalue = 42.3"] ;
709 -> 711 ;
712 [label="squared_error = 0.0\nsamples = 1\nvalue = 44.7"] ;
711 -> 712 ;
713 [label="Crops <= 2171743.0\nsquared_error = 0.4\nsamples = 2\nvalue = 41.5"] ;
711 -> 713 ;
714 [label="squared_error = 0.0\nsamples = 1\nvalue = 42.4"] ;
713 -> 714 ;
715 [label="squared_error = -0.0\nsamples = 1\nvalue = 41.0"] ;
713 -> 715 ;
716 [label="Soil_Temp_12lag <= 34.1\nsquared_error = 48.1\nsamples = 6\nvalue = 32.9"] ;
708 -> 716 ;
717 [label="Soil_Temp_12lag <= 33.6\nsquared_error = 17.5\nsamples = 4\nvalue = 37.2"] ;
716 -> 717 ;
718 [label="SSM_12lag <= 12.1\nsquared_error = 6.7\nsamples = 2\nvalue = 34.6"] ;
717 -> 718 ;
719 [label="squared_error = 0.0\nsamples = 1\nvalue = 30.1"] ;
718 -> 719 ;
720 [label="squared_error = -0.0\nsamples = 1\nvalue = 36.1"] ;
718 -> 720 ;
721 [label="Soil_Temp_12lag <= 33.9\nsquared_error = 0.0\nsamples = 2\nvalue = 42.3"] ;
717 -> 721 ;
722 [label="squared_error = 0.0\nsamples = 1\nvalue = 42.1"] ;
721 -> 722 ;
723 [label="squared_error = 0.0\nsamples = 1\nvalue = 42.5"] ;
721 -> 723 ;
724 [label="Crops <= 2161418.0\nsquared_error = 1.6\nsamples = 2\nvalue = 24.5"] ;
716 -> 724 ;
725 [label="squared_error = 0.0\nsamples = 1\nvalue = 22.7"] ;
724 -> 725 ;
726 [label="squared_error = 0.0\nsamples = 1\nvalue = 25.3"] ;
724 -> 726 ;
727 [label="squared_error = -0.0\nsamples = 1\nvalue = 57.1"] ;
707 -> 727 ;
728 [label="SSM_12lag <= 20.8\nsquared_error = 65.6\nsamples = 216\nvalue = 36.6"] ;
586 -> 728 ;
729 [label="Crops <= 2514723.5\nsquared_error = 59.9\nsamples = 182\nvalue = 35.9"] ;
728 -> 729 ;
730 [label="Soil_Temp_12lag <= 44.1\nsquared_error = 45.8\nsamples = 131\nvalue = 35.1"] ;
729 -> 730 ;
731 [label="Crops <= 2190214.0\nsquared_error = 42.9\nsamples = 123\nvalue = 34.7"] ;
730 -> 731 ;
732 [label="SSM_12lag <= 4.2\nsquared_error = 68.9\nsamples = 6\nvalue = 29.5"] ;
731 -> 732 ;
733 [label="Crops <= 2188380.5\nsquared_error = 1.3\nsamples = 2\nvalue = 40.6"] ;
732 -> 733 ;
734 [label="squared_error = 0.0\nsamples = 1\nvalue = 41.4"] ;
733 -> 734 ;
735 [label="squared_error = 0.0\nsamples = 1\nvalue = 39.0"] ;
733 -> 735 ;
736 [label="SSM_12lag <= 12.0\nsquared_error = 22.4\nsamples = 4\nvalue = 24.7"] ;
732 -> 736 ;
737 [label="SSM_12lag <= 8.1\nsquared_error = 5.2\nsamples = 2\nvalue = 22.2"] ;
736 -> 737 ;
738 [label="squared_error = 0.0\nsamples = 1\nvalue = 19.4"] ;
737 -> 738 ;
739 [label="squared_error = -0.0\nsamples = 1\nvalue = 24.1"] ;
737 -> 739 ;
740 [label="Soil_Temp_12lag <= 36.5\nsquared_error = 9.1\nsamples = 2\nvalue = 31.1"] ;
736 -> 740 ;
741 [label="squared_error = 0.0\nsamples = 1\nvalue = 28.1"] ;
740 -> 741 ;
742 [label="squared_error = 0.0\nsamples = 1\nvalue = 34.1"] ;
740 -> 742 ;
743 [label="SSM_12lag <= 18.9\nsquared_error = 40.1\nsamples = 117\nvalue = 35.0"] ;
731 -> 743 ;
744 [label="Soil_Temp_12lag <= 29.7\nsquared_error = 40.0\nsamples = 107\nvalue = 34.7"] ;
743 -> 744 ;
745 [label="Crops <= 2429344.0\nsquared_error = 15.9\nsamples = 5\nvalue = 28.5"] ;
744 -> 745 ;
746 [label="SSM_12lag <= 8.3\nsquared_error = 0.2\nsamples = 2\nvalue = 32.7"] ;
745 -> 746 ;
747 [label="squared_error = 0.0\nsamples = 1\nvalue = 32.9"] ;
746 -> 747 ;
748 [label="squared_error = 0.0\nsamples = 1\nvalue = 31.9"] ;
746 -> 748 ;
749 [label="Soil_Temp_12lag <= 29.3\nsquared_error = 2.4\nsamples = 3\nvalue = 25.0"] ;
745 -> 749 ;
750 [label="squared_error = 0.7\nsamples = 2\nvalue = 24.4"] ;
749 -> 750 ;
751 [label="squared_error = 0.0\nsamples = 1\nvalue = 28.0"] ;
749 -> 751 ;
752 [label="SSM_12lag <= 1.9\nsquared_error = 38.9\nsamples = 102\nvalue = 35.1"] ;
744 -> 752 ;
753 [label="Soil_Temp_12lag <= 43.2\nsquared_error = 28.4\nsamples = 14\nvalue = 37.7"] ;
752 -> 753 ;
754 [label="squared_error = 15.5\nsamples = 12\nvalue = 39.0"] ;
753 -> 754 ;
755 [label="squared_error = 38.1\nsamples = 2\nvalue = 30.9"] ;
753 -> 755 ;
756 [label="SSM_12lag <= 3.3\nsquared_error = 39.4\nsamples = 88\nvalue = 34.6"] ;
752 -> 756 ;
757 [label="squared_error = 40.6\nsamples = 39\nvalue = 33.3"] ;
756 -> 757 ;
758 [label="squared_error = 35.8\nsamples = 49\nvalue = 35.7"] ;
756 -> 758 ;
759 [label="SSM_12lag <= 18.9\nsquared_error = 27.8\nsamples = 10\nvalue = 38.4"] ;
743 -> 759 ;
760 [label="squared_error = 0.0\nsamples = 1\nvalue = 49.5"] ;
759 -> 760 ;
761 [label="Soil_Temp_12lag <= 29.1\nsquared_error = 12.9\nsamples = 9\nvalue = 37.0"] ;
759 -> 761 ;
762 [label="Soil_Temp_12lag <= 28.5\nsquared_error = 9.9\nsamples = 2\nvalue = 40.9"] ;
761 -> 762 ;
763 [label="squared_error = 0.0\nsamples = 1\nvalue = 35.5"] ;
762 -> 763 ;
764 [label="squared_error = 0.0\nsamples = 1\nvalue = 42.8"] ;
762 -> 764 ;
765 [label="SSM_12lag <= 19.0\nsquared_error = 6.1\nsamples = 7\nvalue = 35.5"] ;
761 -> 765 ;
766 [label="squared_error = 0.0\nsamples = 1\nvalue = 40.5"] ;
765 -> 766 ;
767 [label="squared_error = 3.9\nsamples = 6\nvalue = 35.0"] ;
765 -> 767 ;
768 [label="Crops <= 2222151.5\nsquared_error = 43.8\nsamples = 8\nvalue = 43.5"] ;
730 -> 768 ;
769 [label="Soil_Temp_12lag <= 44.6\nsquared_error = 48.7\nsamples = 2\nvalue = 51.3"] ;
768 -> 769 ;
770 [label="squared_error = 0.0\nsamples = 1\nvalue = 44.3"] ;
769 -> 770 ;
771 [label="squared_error = 0.0\nsamples = 1\nvalue = 58.3"] ;
769 -> 771 ;
772 [label="SSM_12lag <= 2.2\nsquared_error = 15.3\nsamples = 6\nvalue = 41.0"] ;
768 -> 772 ;
773 [label="Crops <= 2250456.5\nsquared_error = 1.4\nsamples = 5\nvalue = 42.6"] ;
772 -> 773 ;
774 [label="Crops <= 2240544.0\nsquared_error = 0.4\nsamples = 3\nvalue = 43.5"] ;
773 -> 774 ;
775 [label="squared_error = 0.0\nsamples = 1\nvalue = 42.7"] ;
774 -> 775 ;
776 [label="Soil_Temp_12lag <= 45.0\nsquared_error = 0.1\nsamples = 2\nvalue = 43.9"] ;
774 -> 776 ;
777 [label="squared_error = 0.0\nsamples = 1\nvalue = 43.7"] ;
776 -> 777 ;
778 [label="squared_error = 0.0\nsamples = 1\nvalue = 44.2"] ;
776 -> 778 ;
779 [label="SSM_12lag <= 1.7\nsquared_error = 0.0\nsamples = 2\nvalue = 41.3"] ;
773 -> 779 ;
780 [label="squared_error = 0.0\nsamples = 1\nvalue = 41.4"] ;
779 -> 780 ;
781 [label="squared_error = 0.0\nsamples = 1\nvalue = 41.2"] ;
779 -> 781 ;
782 [label="squared_error = -0.0\nsamples = 1\nvalue = 32.6"] ;
772 -> 782 ;
783 [label="Soil_Temp_12lag <= 44.9\nsquared_error = 88.7\nsamples = 51\nvalue = 37.8"] ;
729 -> 783 ;
784 [label="Crops <= 2652275.0\nsquared_error = 71.9\nsamples = 49\nvalue = 39.0"] ;
783 -> 784 ;
785 [label="Soil_Temp_12lag <= 38.8\nsquared_error = 56.6\nsamples = 11\nvalue = 45.4"] ;
784 -> 785 ;
786 [label="Soil_Temp_12lag <= 35.3\nsquared_error = 59.7\nsamples = 8\nvalue = 43.3"] ;
785 -> 786 ;
787 [label="Soil_Temp_12lag <= 29.1\nsquared_error = 28.8\nsamples = 7\nvalue = 44.9"] ;
786 -> 787 ;
788 [label="squared_error = -0.0\nsamples = 1\nvalue = 52.3"] ;
787 -> 788 ;
789 [label="SSM_12lag <= 3.0\nsquared_error = 16.4\nsamples = 6\nvalue = 42.7"] ;
787 -> 789 ;
790 [label="squared_error = 0.0\nsamples = 1\nvalue = 51.1"] ;
789 -> 790 ;
791 [label="squared_error = 9.5\nsamples = 5\nvalue = 41.8"] ;
789 -> 791 ;
792 [label="squared_error = 0.0\nsamples = 1\nvalue = 22.6"] ;
786 -> 792 ;
793 [label="Soil_Temp_12lag <= 40.5\nsquared_error = 0.4\nsamples = 3\nvalue = 51.3"] ;
785 -> 793 ;
794 [label="squared_error = 0.0\nsamples = 1\nvalue = 50.5"] ;
793 -> 794 ;
795 [label="Crops <= 2585420.5\nsquared_error = 0.0\nsamples = 2\nvalue = 51.9"] ;
793 -> 795 ;
796 [label="squared_error = 0.0\nsamples = 1\nvalue = 51.9"] ;
795 -> 796 ;
797 [label="squared_error = 0.0\nsamples = 1\nvalue = 51.8"] ;
795 -> 797 ;
798 [label="Soil_Temp_12lag <= 29.6\nsquared_error = 60.3\nsamples = 38\nvalue = 37.1"] ;
784 -> 798 ;
799 [label="Soil_Temp_12lag <= 29.2\nsquared_error = 52.4\nsamples = 5\nvalue = 29.3"] ;
798 -> 799 ;
800 [label="SSM_12lag <= 5.5\nsquared_error = 38.2\nsamples = 3\nvalue = 35.0"] ;
799 -> 800 ;
801 [label="squared_error = 0.0\nsamples = 1\nvalue = 24.3"] ;
800 -> 801 ;
802 [label="Soil_Temp_12lag <= 28.6\nsquared_error = 0.3\nsamples = 2\nvalue = 38.5"] ;
800 -> 802 ;
803 [label="squared_error = 0.0\nsamples = 1\nvalue = 37.7"] ;
802 -> 803 ;
804 [label="squared_error = 0.0\nsamples = 1\nvalue = 38.9"] ;
802 -> 804 ;
805 [label="SSM_12lag <= 13.2\nsquared_error = 25.8\nsamples = 2\nvalue = 25.5"] ;
799 -> 805 ;
806 [label="squared_error = 0.0\nsamples = 1\nvalue = 20.4"] ;
805 -> 806 ;
807 [label="squared_error = 0.0\nsamples = 1\nvalue = 30.5"] ;
805 -> 807 ;
808 [label="SSM_12lag <= 19.5\nsquared_error = 47.8\nsamples = 33\nvalue = 38.6"] ;
798 -> 808 ;
809 [label="Soil_Temp_12lag <= 38.8\nsquared_error = 32.7\nsamples = 31\nvalue = 39.7"] ;
808 -> 809 ;
810 [label="SSM_12lag <= 2.8\nsquared_error = 14.5\nsamples = 16\nvalue = 41.4"] ;
809 -> 810 ;
811 [label="squared_error = 10.6\nsamples = 7\nvalue = 39.4"] ;
810 -> 811 ;
812 [label="squared_error = 10.7\nsamples = 9\nvalue = 43.4"] ;
810 -> 812 ;
813 [label="SSM_12lag <= 2.4\nsquared_error = 49.5\nsamples = 15\nvalue = 37.1"] ;
809 -> 813 ;
814 [label="squared_error = 25.0\nsamples = 10\nvalue = 39.8"] ;
813 -> 814 ;
815 [label="squared_error = 44.4\nsamples = 5\nvalue = 30.0"] ;
813 -> 815 ;
816 [label="SSM_12lag <= 20.3\nsquared_error = 82.4\nsamples = 2\nvalue = 30.1"] ;
808 -> 816 ;
817 [label="squared_error = 0.0\nsamples = 1\nvalue = 23.7"] ;
816 -> 817 ;
818 [label="squared_error = 0.0\nsamples = 1\nvalue = 43.0"] ;
816 -> 818 ;
819 [label="Crops <= 2974160.5\nsquared_error = 5.9\nsamples = 2\nvalue = 20.8"] ;
783 -> 819 ;
820 [label="squared_error = 0.0\nsamples = 1\nvalue = 24.3"] ;
819 -> 820 ;
821 [label="squared_error = -0.0\nsamples = 1\nvalue = 19.1"] ;
819 -> 821 ;
822 [label="Crops <= 2236725.0\nsquared_error = 76.4\nsamples = 34\nvalue = 40.7"] ;
728 -> 822 ;
823 [label="SSM_12lag <= 24.1\nsquared_error = 88.4\nsamples = 11\nvalue = 35.8"] ;
822 -> 823 ;
824 [label="SSM_12lag <= 23.2\nsquared_error = 84.0\nsamples = 9\nvalue = 34.0"] ;
823 -> 824 ;
825 [label="Soil_Temp_12lag <= 33.0\nsquared_error = 41.7\nsamples = 5\nvalue = 39.9"] ;
824 -> 825 ;
826 [label="SSM_12lag <= 22.6\nsquared_error = 8.8\nsamples = 4\nvalue = 43.0"] ;
825 -> 826 ;
827 [label="SSM_12lag <= 21.7\nsquared_error = 3.1\nsamples = 3\nvalue = 41.4"] ;
826 -> 827 ;
828 [label="squared_error = 0.0\nsamples = 1\nvalue = 44.4"] ;
827 -> 828 ;
829 [label="Crops <= 2205263.5\nsquared_error = 0.9\nsamples = 2\nvalue = 40.6"] ;
827 -> 829 ;
830 [label="squared_error = 0.0\nsamples = 1\nvalue = 41.6"] ;
829 -> 830 ;
831 [label="squared_error = 0.0\nsamples = 1\nvalue = 39.7"] ;
829 -> 831 ;
832 [label="squared_error = 0.0\nsamples = 1\nvalue = 47.1"] ;
826 -> 832 ;
833 [label="squared_error = -0.0\nsamples = 1\nvalue = 28.8"] ;
825 -> 833 ;
834 [label="SSM_12lag <= 23.8\nsquared_error = 36.7\nsamples = 4\nvalue = 26.4"] ;
824 -> 834 ;
835 [label="Soil_Temp_12lag <= 31.1\nsquared_error = 20.1\nsamples = 3\nvalue = 24.6"] ;
834 -> 835 ;
836 [label="Crops <= 2213635.0\nsquared_error = 1.0\nsamples = 2\nvalue = 22.7"] ;
835 -> 836 ;
837 [label="squared_error = 0.0\nsamples = 1\nvalue = 23.5"] ;
836 -> 837 ;
838 [label="squared_error = -0.0\nsamples = 1\nvalue = 21.4"] ;
836 -> 838 ;
839 [label="squared_error = 0.0\nsamples = 1\nvalue = 34.4"] ;
835 -> 839 ;
840 [label="squared_error = -0.0\nsamples = 1\nvalue = 37.2"] ;
834 -> 840 ;
841 [label="SSM_12lag <= 24.8\nsquared_error = 5.8\nsamples = 2\nvalue = 45.2"] ;
823 -> 841 ;
842 [label="squared_error = 0.0\nsamples = 1\nvalue = 46.9"] ;
841 -> 842 ;
843 [label="squared_error = 0.0\nsamples = 1\nvalue = 41.8"] ;
841 -> 843 ;
844 [label="Soil_Temp_12lag <= 28.6\nsquared_error = 49.2\nsamples = 23\nvalue = 43.4"] ;
822 -> 844 ;
845 [label="squared_error = 0.0\nsamples = 1\nvalue = 61.7"] ;
844 -> 845 ;
846 [label="Crops <= 2883700.0\nsquared_error = 40.5\nsamples = 22\nvalue = 42.9"] ;
844 -> 846 ;
847 [label="Crops <= 2766760.5\nsquared_error = 40.8\nsamples = 17\nvalue = 44.3"] ;
846 -> 847 ;
848 [label="Crops <= 2550893.5\nsquared_error = 29.9\nsamples = 16\nvalue = 42.9"] ;
847 -> 848 ;
849 [label="Soil_Temp_12lag <= 30.8\nsquared_error = 33.1\nsamples = 11\nvalue = 41.3"] ;
848 -> 849 ;
850 [label="SSM_12lag <= 23.4\nsquared_error = 58.7\nsamples = 4\nvalue = 34.7"] ;
849 -> 850 ;
851 [label="squared_error = 2.6\nsamples = 3\nvalue = 39.1"] ;
850 -> 851 ;
852 [label="squared_error = 0.0\nsamples = 1\nvalue = 21.7"] ;
850 -> 852 ;
853 [label="SSM_12lag <= 23.7\nsquared_error = 5.6\nsamples = 7\nvalue = 43.5"] ;
849 -> 853 ;
854 [label="squared_error = 3.0\nsamples = 6\nvalue = 42.4"] ;
853 -> 854 ;
855 [label="squared_error = 0.0\nsamples = 1\nvalue = 46.6"] ;
853 -> 855 ;
856 [label="Soil_Temp_12lag <= 31.7\nsquared_error = 7.4\nsamples = 5\nvalue = 46.2"] ;
848 -> 856 ;
857 [label="Soil_Temp_12lag <= 29.8\nsquared_error = 8.1\nsamples = 3\nvalue = 45.1"] ;
856 -> 857 ;
858 [label="squared_error = 3.0\nsamples = 2\nvalue = 46.3"] ;
857 -> 858 ;
859 [label="squared_error = 0.0\nsamples = 1\nvalue = 40.3"] ;
857 -> 859 ;
860 [label="SSM_12lag <= 23.4\nsquared_error = 0.8\nsamples = 2\nvalue = 48.0"] ;
856 -> 860 ;
861 [label="squared_error = 0.0\nsamples = 1\nvalue = 48.6"] ;
860 -> 861 ;
862 [label="squared_error = -0.0\nsamples = 1\nvalue = 46.7"] ;
860 -> 862 ;
863 [label="squared_error = -0.0\nsamples = 1\nvalue = 54.9"] ;
847 -> 863 ;
864 [label="SSM_12lag <= 24.7\nsquared_error = 5.0\nsamples = 5\nvalue = 37.7"] ;
846 -> 864 ;
865 [label="Soil_Temp_12lag <= 32.0\nsquared_error = 2.9\nsamples = 4\nvalue = 38.7"] ;
864 -> 865 ;
866 [label="Soil_Temp_12lag <= 30.8\nsquared_error = 0.2\nsamples = 3\nvalue = 40.1"] ;
865 -> 866 ;
867 [label="Crops <= 3051817.5\nsquared_error = 0.0\nsamples = 2\nvalue = 39.8"] ;
866 -> 867 ;
868 [label="squared_error = 0.0\nsamples = 1\nvalue = 40.0"] ;
867 -> 868 ;
869 [label="squared_error = 0.0\nsamples = 1\nvalue = 39.7"] ;
867 -> 869 ;
870 [label="squared_error = -0.0\nsamples = 1\nvalue = 40.6"] ;
866 -> 870 ;
871 [label="squared_error = 0.0\nsamples = 1\nvalue = 36.7"] ;
865 -> 871 ;
872 [label="squared_error = -0.0\nsamples = 1\nvalue = 35.0"] ;
864 -> 872 ;
873 [label="Maize <= 0.5\nsquared_error = 54.5\nsamples = 1028\nvalue = 32.5"] ;
1 -> 873 ;
874 [label="Crops <= 16563.5\nsquared_error = 54.7\nsamples = 891\nvalue = 33.0"] ;
873 -> 874 ;
875 [label="SSM_12lag <= 21.0\nsquared_error = 139.1\nsamples = 36\nvalue = 38.1"] ;
874 -> 875 ;
876 [label="SSM_12lag <= 17.3\nsquared_error = 134.1\nsamples = 26\nvalue = 41.6"] ;
875 -> 876 ;
877 [label="Soil_Temp_12lag <= 31.3\nsquared_error = 111.6\nsamples = 16\nvalue = 37.3"] ;
876 -> 877 ;
878 [label="Crops <= 3.0\nsquared_error = 4.8\nsamples = 3\nvalue = 25.9"] ;
877 -> 878 ;
879 [label="squared_error = 0.0\nsamples = 1\nvalue = 28.4"] ;
878 -> 879 ;
880 [label="Paddy <= 0.5\nsquared_error = 0.1\nsamples = 2\nvalue = 24.0"] ;
878 -> 880 ;
881 [label="squared_error = 0.0\nsamples = 1\nvalue = 24.2"] ;
880 -> 881 ;
882 [label="squared_error = 0.0\nsamples = 1\nvalue = 23.7"] ;
880 -> 882 ;
883 [label="SSM_12lag <= 2.7\nsquared_error = 82.4\nsamples = 13\nvalue = 41.8"] ;
877 -> 883 ;
884 [label="SSM_12lag <= 2.0\nsquared_error = 25.3\nsamples = 6\nvalue = 48.2"] ;
883 -> 884 ;
885 [label="Crops <= 2894.0\nsquared_error = 0.1\nsamples = 4\nvalue = 45.3"] ;
884 -> 885 ;
886 [label="Crops <= 2.0\nsquared_error = 0.0\nsamples = 3\nvalue = 45.4"] ;
885 -> 886 ;
887 [label="squared_error = 0.0\nsamples = 1\nvalue = 45.8"] ;
886 -> 887 ;
888 [label="Soil_Temp_12lag <= 36.6\nsquared_error = 0.0\nsamples = 2\nvalue = 45.3"] ;
886 -> 888 ;
889 [label="squared_error = 0.0\nsamples = 1\nvalue = 45.4"] ;
888 -> 889 ;
890 [label="squared_error = 0.0\nsamples = 1\nvalue = 45.3"] ;
888 -> 890 ;
891 [label="squared_error = 0.0\nsamples = 1\nvalue = 44.8"] ;
885 -> 891 ;
892 [label="SSM_12lag <= 2.4\nsquared_error = 0.1\nsamples = 2\nvalue = 56.9"] ;
884 -> 892 ;
893 [label="squared_error = 0.0\nsamples = 1\nvalue = 57.3"] ;
892 -> 893 ;
894 [label="squared_error = 0.0\nsamples = 1\nvalue = 56.5"] ;
892 -> 894 ;
895 [label="Soil_Temp_12lag <= 34.8\nsquared_error = 68.1\nsamples = 7\nvalue = 36.6"] ;
883 -> 895 ;
896 [label="Crops <= 7901.0\nsquared_error = 16.0\nsamples = 3\nvalue = 46.1"] ;
895 -> 896 ;
897 [label="Soil_Temp_12lag <= 32.4\nsquared_error = 1.1\nsamples = 2\nvalue = 43.9"] ;
896 -> 897 ;
898 [label="squared_error = 0.0\nsamples = 1\nvalue = 45.4"] ;
897 -> 898 ;
899 [label="squared_error = 0.0\nsamples = 1\nvalue = 43.1"] ;
897 -> 899 ;
900 [label="squared_error = -0.0\nsamples = 1\nvalue = 52.8"] ;
896 -> 900 ;
901 [label="Soil_Temp_12lag <= 37.8\nsquared_error = 2.9\nsamples = 4\nvalue = 30.3"] ;
895 -> 901 ;
902 [label="Soil_Temp_12lag <= 36.7\nsquared_error = 0.5\nsamples = 3\nvalue = 29.6"] ;
901 -> 902 ;
903 [label="Crops <= 6994.0\nsquared_error = 0.0\nsamples = 2\nvalue = 29.2"] ;
902 -> 903 ;
904 [label="squared_error = 0.0\nsamples = 1\nvalue = 29.1"] ;
903 -> 904 ;
905 [label="squared_error = 0.0\nsamples = 1\nvalue = 29.3"] ;
903 -> 905 ;
906 [label="squared_error = 0.0\nsamples = 1\nvalue = 31.0"] ;
902 -> 906 ;
907 [label="squared_error = 0.0\nsamples = 1\nvalue = 33.8"] ;
901 -> 907 ;
908 [label="Soil_Temp_12lag <= 32.6\nsquared_error = 75.5\nsamples = 10\nvalue = 49.8"] ;
876 -> 908 ;
909 [label="SSM_12lag <= 20.5\nsquared_error = 41.3\nsamples = 9\nvalue = 51.5"] ;
908 -> 909 ;
910 [label="Soil_Temp_12lag <= 31.0\nsquared_error = 10.1\nsamples = 7\nvalue = 53.8"] ;
909 -> 910 ;
911 [label="Crops <= 89.5\nsquared_error = 13.0\nsamples = 3\nvalue = 51.3"] ;
910 -> 911 ;
912 [label="squared_error = 0.0\nsamples = 1\nvalue = 45.4"] ;
911 -> 912 ;
913 [label="Crops <= 8107.0\nsquared_error = 1.5\nsamples = 2\nvalue = 53.3"] ;
911 -> 913 ;
914 [label="squared_error = 0.0\nsamples = 1\nvalue = 55.1"] ;
913 -> 914 ;
915 [label="squared_error = 0.0\nsamples = 1\nvalue = 52.5"] ;
913 -> 915 ;
916 [label="SSM_12lag <= 18.1\nsquared_error = 1.2\nsamples = 4\nvalue = 55.5"] ;
910 -> 916 ;
917 [label="squared_error = 0.0\nsamples = 1\nvalue = 54.2"] ;
916 -> 917 ;
918 [label="Crops <= 67.0\nsquared_error = 0.5\nsamples = 3\nvalue = 56.2"] ;
916 -> 918 ;
919 [label="squared_error = 0.0\nsamples = 1\nvalue = 57.4"] ;
918 -> 919 ;
920 [label="Paddy <= 0.5\nsquared_error = 0.0\nsamples = 2\nvalue = 55.7"] ;
918 -> 920 ;
921 [label="squared_error = 0.0\nsamples = 1\nvalue = 55.8"] ;
920 -> 921 ;
922 [label="squared_error = 0.0\nsamples = 1\nvalue = 55.7"] ;
920 -> 922 ;
923 [label="Crops <= 7808.5\nsquared_error = 36.9\nsamples = 2\nvalue = 40.0"] ;
909 -> 923 ;
924 [label="squared_error = 0.0\nsamples = 1\nvalue = 33.9"] ;
923 -> 924 ;
925 [label="squared_error = 0.0\nsamples = 1\nvalue = 46.0"] ;
923 -> 925 ;
926 [label="squared_error = -0.0\nsamples = 1\nvalue = 28.6"] ;
908 -> 926 ;
927 [label="SSM_12lag <= 24.2\nsquared_error = 27.6\nsamples = 10\nvalue = 28.5"] ;
875 -> 927 ;
928 [label="Crops <= 14966.0\nsquared_error = 5.8\nsamples = 6\nvalue = 26.2"] ;
927 -> 928 ;
929 [label="SSM_12lag <= 23.4\nsquared_error = 1.9\nsamples = 5\nvalue = 25.0"] ;
928 -> 929 ;
930 [label="Paddy <= 0.5\nsquared_error = 1.7\nsamples = 3\nvalue = 25.6"] ;
929 -> 930 ;
931 [label="squared_error = 0.0\nsamples = 1\nvalue = 26.7"] ;
930 -> 931 ;
932 [label="SSM_12lag <= 22.0\nsquared_error = 1.6\nsamples = 2\nvalue = 25.2"] ;
930 -> 932 ;
933 [label="squared_error = 0.0\nsamples = 1\nvalue = 23.4"] ;
932 -> 933 ;
934 [label="squared_error = 0.0\nsamples = 1\nvalue = 26.1"] ;
932 -> 934 ;
935 [label="Paddy <= 0.5\nsquared_error = 0.2\nsamples = 2\nvalue = 23.8"] ;
929 -> 935 ;
936 [label="squared_error = 0.0\nsamples = 1\nvalue = 24.2"] ;
935 -> 936 ;
937 [label="squared_error = 0.0\nsamples = 1\nvalue = 23.3"] ;
935 -> 937 ;
938 [label="squared_error = 0.0\nsamples = 1\nvalue = 29.8"] ;
928 -> 938 ;
939 [label="SSM_12lag <= 24.4\nsquared_error = 40.0\nsamples = 4\nvalue = 31.6"] ;
927 -> 939 ;
940 [label="squared_error = 0.0\nsamples = 1\nvalue = 45.7"] ;
939 -> 940 ;
941 [label="Soil_Temp_12lag <= 28.6\nsquared_error = 0.2\nsamples = 3\nvalue = 28.8"] ;
939 -> 941 ;
942 [label="squared_error = 0.0\nsamples = 1\nvalue = 29.4"] ;
941 -> 942 ;
943 [label="Soil_Temp_12lag <= 29.9\nsquared_error = 0.0\nsamples = 2\nvalue = 28.4"] ;
941 -> 943 ;
944 [label="squared_error = 0.0\nsamples = 1\nvalue = 28.4"] ;
943 -> 944 ;
945 [label="squared_error = 0.0\nsamples = 1\nvalue = 28.4"] ;
943 -> 945 ;
946 [label="SSM_12lag <= 11.1\nsquared_error = 50.5\nsamples = 855\nvalue = 32.8"] ;
874 -> 946 ;
947 [label="Crops <= 2129910.5\nsquared_error = 50.4\nsamples = 520\nvalue = 32.0"] ;
946 -> 947 ;
948 [label="Soil_Temp_12lag <= 45.0\nsquared_error = 50.5\nsamples = 493\nvalue = 32.3"] ;
947 -> 948 ;
949 [label="Soil_Temp_12lag <= 42.0\nsquared_error = 50.0\nsamples = 477\nvalue = 32.1"] ;
948 -> 949 ;
950 [label="SSM_12lag <= 4.7\nsquared_error = 49.3\nsamples = 384\nvalue = 32.7"] ;
949 -> 950 ;
951 [label="SSM_12lag <= 2.8\nsquared_error = 54.4\nsamples = 242\nvalue = 33.6"] ;
950 -> 951 ;
952 [label="Crops <= 1270265.5\nsquared_error = 50.1\nsamples = 171\nvalue = 32.7"] ;
951 -> 952 ;
953 [label="Soil_Temp_12lag <= 31.8\nsquared_error = 44.3\nsamples = 92\nvalue = 31.5"] ;
952 -> 953 ;
954 [label="SSM_12lag <= 2.4\nsquared_error = 4.5\nsamples = 11\nvalue = 26.8"] ;
953 -> 954 ;
955 [label="squared_error = 2.4\nsamples = 9\nvalue = 26.1"] ;
954 -> 955 ;
956 [label="squared_error = 0.4\nsamples = 2\nvalue = 30.1"] ;
954 -> 956 ;
957 [label="Soil_Temp_12lag <= 32.0\nsquared_error = 46.3\nsamples = 81\nvalue = 32.0"] ;
953 -> 957 ;
958 [label="squared_error = 0.0\nsamples = 1\nvalue = 43.0"] ;
957 -> 958 ;
959 [label="squared_error = 44.4\nsamples = 80\nvalue = 31.8"] ;
957 -> 959 ;
960 [label="Crops <= 1274479.5\nsquared_error = 52.8\nsamples = 79\nvalue = 34.2"] ;
952 -> 960 ;
961 [label="SSM_12lag <= 2.1\nsquared_error = 0.2\nsamples = 2\nvalue = 43.4"] ;
960 -> 961 ;
962 [label="squared_error = 0.0\nsamples = 1\nvalue = 43.8"] ;
961 -> 962 ;
963 [label="squared_error = 0.0\nsamples = 1\nvalue = 42.9"] ;
961 -> 963 ;
964 [label="SSM_12lag <= 2.3\nsquared_error = 51.0\nsamples = 77\nvalue = 33.7"] ;
960 -> 964 ;
965 [label="squared_error = 47.4\nsamples = 54\nvalue = 32.7"] ;
964 -> 965 ;
966 [label="squared_error = 50.1\nsamples = 23\nvalue = 36.4"] ;
964 -> 966 ;
967 [label="Crops <= 540554.0\nsquared_error = 58.6\nsamples = 71\nvalue = 35.7"] ;
951 -> 967 ;
968 [label="Paddy <= 0.5\nsquared_error = 103.2\nsamples = 6\nvalue = 43.4"] ;
967 -> 968 ;
969 [label="Soil_Temp_12lag <= 36.0\nsquared_error = 30.6\nsamples = 2\nvalue = 28.8"] ;
968 -> 969 ;
970 [label="squared_error = 0.0\nsamples = 1\nvalue = 36.6"] ;
969 -> 970 ;
971 [label="squared_error = 0.0\nsamples = 1\nvalue = 24.9"] ;
969 -> 971 ;
972 [label="Soil_Temp_12lag <= 29.3\nsquared_error = 20.9\nsamples = 4\nvalue = 48.9"] ;
968 -> 972 ;
973 [label="squared_error = 0.0\nsamples = 1\nvalue = 43.4"] ;
972 -> 973 ;
974 [label="squared_error = 4.8\nsamples = 3\nvalue = 52.2"] ;
972 -> 974 ;
975 [label="Soil_Temp_12lag <= 32.0\nsquared_error = 46.5\nsamples = 65\nvalue = 34.9"] ;
967 -> 975 ;
976 [label="Cotton <= 0.5\nsquared_error = 34.8\nsamples = 35\nvalue = 36.8"] ;
975 -> 976 ;
977 [label="squared_error = 32.6\nsamples = 15\nvalue = 33.9"] ;
976 -> 977 ;
978 [label="squared_error = 24.3\nsamples = 20\nvalue = 39.2"] ;
976 -> 978 ;
979 [label="SSM_12lag <= 2.9\nsquared_error = 50.3\nsamples = 30\nvalue = 33.0"] ;
975 -> 979 ;
980 [label="squared_error = 25.0\nsamples = 8\nvalue = 38.4"] ;
979 -> 980 ;
981 [label="squared_error = 44.2\nsamples = 22\nvalue = 30.9"] ;
979 -> 981 ;
982 [label="Soil_Temp_12lag <= 34.4\nsquared_error = 36.5\nsamples = 142\nvalue = 31.1"] ;
950 -> 982 ;
983 [label="Soil_Temp_12lag <= 27.7\nsquared_error = 35.3\nsamples = 112\nvalue = 30.1"] ;
982 -> 983 ;
984 [label="squared_error = 0.0\nsamples = 1\nvalue = 53.1"] ;
983 -> 984 ;
985 [label="Red Gram <= 0.5\nsquared_error = 32.5\nsamples = 111\nvalue = 30.0"] ;
983 -> 985 ;
986 [label="Soil_Temp_12lag <= 30.3\nsquared_error = 31.0\nsamples = 109\nvalue = 30.2"] ;
985 -> 986 ;
987 [label="squared_error = 50.6\nsamples = 25\nvalue = 32.3"] ;
986 -> 987 ;
988 [label="squared_error = 24.7\nsamples = 84\nvalue = 29.7"] ;
986 -> 988 ;
989 [label="Soil_Temp_12lag <= 31.8\nsquared_error = 0.1\nsamples = 2\nvalue = 19.2"] ;
985 -> 989 ;
990 [label="squared_error = 0.0\nsamples = 1\nvalue = 18.9"] ;
989 -> 990 ;
991 [label="squared_error = -0.0\nsamples = 1\nvalue = 19.4"] ;
989 -> 991 ;
992 [label="Soil_Temp_12lag <= 35.0\nsquared_error = 23.0\nsamples = 30\nvalue = 34.9"] ;
982 -> 992 ;
993 [label="Soil_Temp_12lag <= 34.6\nsquared_error = 16.8\nsamples = 2\nvalue = 42.0"] ;
992 -> 993 ;
994 [label="squared_error = 0.0\nsamples = 1\nvalue = 36.2"] ;
993 -> 994 ;
995 [label="squared_error = 0.0\nsamples = 1\nvalue = 44.9"] ;
993 -> 995 ;
996 [label="Crops <= 1743533.5\nsquared_error = 19.6\nsamples = 28\nvalue = 34.4"] ;
992 -> 996 ;
997 [label="SSM_12lag <= 6.0\nsquared_error = 15.7\nsamples = 23\nvalue = 33.5"] ;
996 -> 997 ;
998 [label="squared_error = 1.6\nsamples = 2\nvalue = 27.4"] ;
997 -> 998 ;
999 [label="squared_error = 13.1\nsamples = 21\nvalue = 34.1"] ;
997 -> 999 ;
1000 [label="Crops <= 2026298.0\nsquared_error = 16.8\nsamples = 5\nvalue = 38.6"] ;
996 -> 1000 ;
1001 [label="squared_error = 5.5\nsamples = 3\nvalue = 40.8"] ;
1000 -> 1001 ;
1002 [label="squared_error = 4.8\nsamples = 2\nvalue = 33.2"] ;
1000 -> 1002 ;
1003 [label="SSM_12lag <= 2.0\nsquared_error = 46.6\nsamples = 93\nvalue = 29.9"] ;
949 -> 1003 ;
1004 [label="Red Gram <= 0.5\nsquared_error = 65.4\nsamples = 35\nvalue = 33.3"] ;
1003 -> 1004 ;
1005 [label="Crops <= 477999.0\nsquared_error = 60.2\nsamples = 33\nvalue = 34.0"] ;
1004 -> 1005 ;
1006 [label="Crops <= 232721.5\nsquared_error = 26.5\nsamples = 5\nvalue = 25.7"] ;
1005 -> 1006 ;
1007 [label="Soil_Temp_12lag <= 44.3\nsquared_error = 11.8\nsamples = 3\nvalue = 29.1"] ;
1006 -> 1007 ;
1008 [label="squared_error = 2.2\nsamples = 2\nvalue = 26.8"] ;
1007 -> 1008 ;
1009 [label="squared_error = 0.0\nsamples = 1\nvalue = 33.6"] ;
1007 -> 1009 ;
1010 [label="Soil_Temp_12lag <= 44.2\nsquared_error = 4.7\nsamples = 2\nvalue = 20.6"] ;
1006 -> 1010 ;
1011 [label="squared_error = 0.0\nsamples = 1\nvalue = 22.7"] ;
1010 -> 1011 ;
1012 [label="squared_error = 0.0\nsamples = 1\nvalue = 18.4"] ;
1010 -> 1012 ;
1013 [label="Crops <= 1646471.0\nsquared_error = 55.3\nsamples = 28\nvalue = 35.0"] ;
1005 -> 1013 ;
1014 [label="Crops <= 1448014.5\nsquared_error = 54.5\nsamples = 21\nvalue = 36.1"] ;
1013 -> 1014 ;
1015 [label="squared_error = 47.6\nsamples = 16\nvalue = 34.5"] ;
1014 -> 1015 ;
1016 [label="squared_error = 28.3\nsamples = 5\nvalue = 42.8"] ;
1014 -> 1016 ;
1017 [label="Soil_Temp_12lag <= 42.8\nsquared_error = 23.9\nsamples = 7\nvalue = 29.6"] ;
1013 -> 1017 ;
1018 [label="squared_error = 0.0\nsamples = 1\nvalue = 39.6"] ;
1017 -> 1018 ;
1019 [label="squared_error = 11.1\nsamples = 6\nvalue = 28.2"] ;
1017 -> 1019 ;
1020 [label="Soil_Temp_12lag <= 43.8\nsquared_error = 9.2\nsamples = 2\nvalue = 21.7"] ;
1004 -> 1020 ;
1021 [label="squared_error = 0.0\nsamples = 1\nvalue = 23.9"] ;
1020 -> 1021 ;
1022 [label="squared_error = 0.0\nsamples = 1\nvalue = 17.4"] ;
1020 -> 1022 ;
1023 [label="Red Gram <= 0.5\nsquared_error = 26.5\nsamples = 58\nvalue = 28.1"] ;
1003 -> 1023 ;
1024 [label="Soil_Temp_12lag <= 42.9\nsquared_error = 23.8\nsamples = 55\nvalue = 28.5"] ;
1023 -> 1024 ;
1025 [label="SSM_12lag <= 3.3\nsquared_error = 28.0\nsamples = 17\nvalue = 25.4"] ;
1024 -> 1025 ;
1026 [label="Crops <= 1574397.5\nsquared_error = 13.0\nsamples = 14\nvalue = 24.1"] ;
1025 -> 1026 ;
1027 [label="squared_error = 4.5\nsamples = 12\nvalue = 25.7"] ;
1026 -> 1027 ;
1028 [label="squared_error = 2.3\nsamples = 2\nvalue = 18.3"] ;
1026 -> 1028 ;
1029 [label="SSM_12lag <= 3.7\nsquared_error = 47.6\nsamples = 3\nvalue = 33.4"] ;
1025 -> 1029 ;
1030 [label="squared_error = 27.9\nsamples = 2\nvalue = 37.2"] ;
1029 -> 1030 ;
1031 [label="squared_error = 0.0\nsamples = 1\nvalue = 25.8"] ;
1029 -> 1031 ;
1032 [label="Soil_Temp_12lag <= 43.0\nsquared_error = 18.4\nsamples = 38\nvalue = 29.5"] ;
1024 -> 1032 ;
1033 [label="squared_error = 0.0\nsamples = 1\nvalue = 36.3"] ;
1032 -> 1033 ;
1034 [label="Crops <= 1997566.5\nsquared_error = 17.5\nsamples = 37\nvalue = 29.3"] ;
1032 -> 1034 ;
1035 [label="squared_error = 17.0\nsamples = 35\nvalue = 29.5"] ;
1034 -> 1035 ;
1036 [label="squared_error = 0.7\nsamples = 2\nvalue = 24.3"] ;
1034 -> 1036 ;
1037 [label="Soil_Temp_12lag <= 44.0\nsquared_error = 12.8\nsamples = 3\nvalue = 20.3"] ;
1023 -> 1037 ;
1038 [label="SSM_12lag <= 2.5\nsquared_error = 0.0\nsamples = 2\nvalue = 24.7"] ;
1037 -> 1038 ;
1039 [label="squared_error = 0.0\nsamples = 1\nvalue = 24.9"] ;
1038 -> 1039 ;
1040 [label="squared_error = -0.0\nsamples = 1\nvalue = 24.5"] ;
1038 -> 1040 ;
1041 [label="squared_error = 0.0\nsamples = 1\nvalue = 17.4"] ;
1037 -> 1041 ;
1042 [label="Crops <= 1372549.5\nsquared_error = 32.9\nsamples = 16\nvalue = 38.0"] ;
948 -> 1042 ;
1043 [label="SSM_12lag <= 2.0\nsquared_error = 43.2\nsamples = 11\nvalue = 40.0"] ;
1042 -> 1043 ;
1044 [label="Crops <= 1112694.0\nsquared_error = 44.1\nsamples = 7\nvalue = 37.2"] ;
1043 -> 1044 ;
1045 [label="Crops <= 883809.5\nsquared_error = 32.9\nsamples = 4\nvalue = 39.2"] ;
1044 -> 1045 ;
1046 [label="Crops <= 400510.0\nsquared_error = 1.9\nsamples = 2\nvalue = 34.7"] ;
1045 -> 1046 ;
1047 [label="squared_error = 0.0\nsamples = 1\nvalue = 33.7"] ;
1046 -> 1047 ;
1048 [label="squared_error = -0.0\nsamples = 1\nvalue = 36.6"] ;
1046 -> 1048 ;
1049 [label="Paddy <= 0.5\nsquared_error = 3.5\nsamples = 2\nvalue = 45.9"] ;
1045 -> 1049 ;
1050 [label="squared_error = 0.0\nsamples = 1\nvalue = 44.0"] ;
1049 -> 1050 ;
1051 [label="squared_error = 0.0\nsamples = 1\nvalue = 47.8"] ;
1049 -> 1051 ;
1052 [label="Crops <= 1214824.0\nsquared_error = 45.3\nsamples = 3\nvalue = 33.9"] ;
1044 -> 1052 ;
1053 [label="squared_error = -0.0\nsamples = 1\nvalue = 24.7"] ;
1052 -> 1053 ;
1054 [label="Paddy <= 0.5\nsquared_error = 5.1\nsamples = 2\nvalue = 38.5"] ;
1052 -> 1054 ;
1055 [label="squared_error = 0.0\nsamples = 1\nvalue = 36.2"] ;
1054 -> 1055 ;
1056 [label="squared_error = 0.0\nsamples = 1\nvalue = 40.7"] ;
1054 -> 1056 ;
1057 [label="SSM_12lag <= 2.1\nsquared_error = 8.0\nsamples = 4\nvalue = 44.6"] ;
1043 -> 1057 ;
1058 [label="squared_error = 0.0\nsamples = 1\nvalue = 49.8"] ;
1057 -> 1058 ;
1059 [label="Crops <= 778320.5\nsquared_error = 1.6\nsamples = 3\nvalue = 43.3"] ;
1057 -> 1059 ;
1060 [label="squared_error = 0.0\nsamples = 1\nvalue = 45.5"] ;
1059 -> 1060 ;
1061 [label="Paddy <= 0.5\nsquared_error = 0.0\nsamples = 2\nvalue = 42.6"] ;
1059 -> 1061 ;
1062 [label="squared_error = 0.0\nsamples = 1\nvalue = 42.6"] ;
1061 -> 1062 ;
1063 [label="squared_error = -0.0\nsamples = 1\nvalue = 42.5"] ;
1061 -> 1063 ;
1064 [label="Crops <= 1442283.0\nsquared_error = 7.3\nsamples = 5\nvalue = 35.4"] ;
1042 -> 1064 ;
1065 [label="SSM_12lag <= 1.9\nsquared_error = 2.1\nsamples = 2\nvalue = 31.0"] ;
1064 -> 1065 ;
1066 [label="squared_error = 0.0\nsamples = 1\nvalue = 32.5"] ;
1065 -> 1066 ;
1067 [label="squared_error = 0.0\nsamples = 1\nvalue = 29.6"] ;
1065 -> 1067 ;
1068 [label="Paddy <= 0.5\nsquared_error = 2.7\nsamples = 3\nvalue = 36.5"] ;
1064 -> 1068 ;
1069 [label="SSM_12lag <= 2.2\nsquared_error = 0.4\nsamples = 2\nvalue = 35.3"] ;
1068 -> 1069 ;
1070 [label="squared_error = 0.0\nsamples = 1\nvalue = 36.5"] ;
1069 -> 1070 ;
1071 [label="squared_error = 0.0\nsamples = 1\nvalue = 34.9"] ;
1069 -> 1071 ;
1072 [label="squared_error = 0.0\nsamples = 1\nvalue = 38.5"] ;
1068 -> 1072 ;
1073 [label="Red Gram <= 0.5\nsquared_error = 25.7\nsamples = 27\nvalue = 27.2"] ;
947 -> 1073 ;
1074 [label="SSM_12lag <= 11.0\nsquared_error = 21.4\nsamples = 25\nvalue = 27.8"] ;
1073 -> 1074 ;
1075 [label="Soil_Temp_12lag <= 41.8\nsquared_error = 18.7\nsamples = 24\nvalue = 28.4"] ;
1074 -> 1075 ;
1076 [label="Soil_Temp_12lag <= 40.5\nsquared_error = 19.8\nsamples = 17\nvalue = 30.4"] ;
1075 -> 1076 ;
1077 [label="Crops <= 2176114.5\nsquared_error = 16.8\nsamples = 16\nvalue = 29.9"] ;
1076 -> 1077 ;
1078 [label="Soil_Temp_12lag <= 37.0\nsquared_error = 0.1\nsamples = 3\nvalue = 26.6"] ;
1077 -> 1078 ;
1079 [label="Paddy <= 0.5\nsquared_error = 0.0\nsamples = 2\nvalue = 26.3"] ;
1078 -> 1079 ;
1080 [label="squared_error = 0.0\nsamples = 1\nvalue = 26.3"] ;
1079 -> 1080 ;
1081 [label="squared_error = 0.0\nsamples = 1\nvalue = 26.3"] ;
1079 -> 1081 ;
1082 [label="squared_error = 0.0\nsamples = 1\nvalue = 27.0"] ;
1078 -> 1082 ;
1083 [label="Crops <= 2268941.0\nsquared_error = 17.6\nsamples = 13\nvalue = 30.8"] ;
1077 -> 1083 ;
1084 [label="Soil_Temp_12lag <= 35.6\nsquared_error = 17.8\nsamples = 6\nvalue = 33.1"] ;
1083 -> 1084 ;
1085 [label="squared_error = 8.3\nsamples = 4\nvalue = 30.9"] ;
1084 -> 1085 ;
1086 [label="squared_error = 0.0\nsamples = 2\nvalue = 38.5"] ;
1084 -> 1086 ;
1087 [label="Crops <= 2843394.5\nsquared_error = 9.8\nsamples = 7\nvalue = 28.9"] ;
1083 -> 1087 ;
1088 [label="squared_error = 2.8\nsamples = 6\nvalue = 28.0"] ;
1087 -> 1088 ;
1089 [label="squared_error = 0.0\nsamples = 1\nvalue = 36.6"] ;
1087 -> 1089 ;
1090 [label="squared_error = 0.0\nsamples = 1\nvalue = 39.1"] ;
1076 -> 1090 ;
1091 [label="SSM_12lag <= 1.9\nsquared_error = 3.1\nsamples = 7\nvalue = 25.6"] ;
1075 -> 1091 ;
1092 [label="squared_error = 0.0\nsamples = 1\nvalue = 30.4"] ;
1091 -> 1092 ;
1093 [label="SSM_12lag <= 2.2\nsquared_error = 1.4\nsamples = 6\nvalue = 25.2"] ;
1091 -> 1093 ;
1094 [label="SSM_12lag <= 2.0\nsquared_error = 0.0\nsamples = 2\nvalue = 24.2"] ;
1093 -> 1094 ;
1095 [label="squared_error = 0.0\nsamples = 1\nvalue = 24.2"] ;
1094 -> 1095 ;
1096 [label="squared_error = 0.0\nsamples = 1\nvalue = 24.2"] ;
1094 -> 1096 ;
1097 [label="Crops <= 2190214.0\nsquared_error = 1.1\nsamples = 4\nvalue = 26.0"] ;
1093 -> 1097 ;
1098 [label="Crops <= 2175345.0\nsquared_error = 0.6\nsamples = 3\nvalue = 26.6"] ;
1097 -> 1098 ;
1099 [label="squared_error = 0.0\nsamples = 1\nvalue = 25.1"] ;
1098 -> 1099 ;
1100 [label="squared_error = 0.0\nsamples = 2\nvalue = 26.9"] ;
1098 -> 1100 ;
1101 [label="squared_error = -0.0\nsamples = 1\nvalue = 24.7"] ;
1097 -> 1101 ;
1102 [label="squared_error = 0.0\nsamples = 1\nvalue = 20.8"] ;
1074 -> 1102 ;
1103 [label="Soil_Temp_12lag <= 42.3\nsquared_error = 30.0\nsamples = 2\nvalue = 21.5"] ;
1073 -> 1103 ;
1104 [label="squared_error = 0.0\nsamples = 1\nvalue = 18.3"] ;
1103 -> 1104 ;
1105 [label="squared_error = 0.0\nsamples = 1\nvalue = 31.0"] ;
1103 -> 1105 ;
1106 [label="Soil_Temp_12lag <= 38.2\nsquared_error = 48.5\nsamples = 335\nvalue = 33.8"] ;
946 -> 1106 ;
1107 [label="SSM_12lag <= 22.9\nsquared_error = 45.8\nsamples = 291\nvalue = 33.1"] ;
1106 -> 1107 ;
1108 [label="SSM_12lag <= 20.8\nsquared_error = 48.2\nsamples = 222\nvalue = 33.9"] ;
1107 -> 1108 ;
1109 [label="Soil_Temp_12lag <= 31.3\nsquared_error = 46.5\nsamples = 151\nvalue = 32.8"] ;
1108 -> 1109 ;
1110 [label="SSM_12lag <= 16.6\nsquared_error = 52.4\nsamples = 65\nvalue = 34.4"] ;
1109 -> 1110 ;
1111 [label="Crops <= 753258.0\nsquared_error = 29.5\nsamples = 23\nvalue = 30.4"] ;
1110 -> 1111 ;
1112 [label="Soil_Temp_12lag <= 28.6\nsquared_error = 3.1\nsamples = 6\nvalue = 27.0"] ;
1111 -> 1112 ;
1113 [label="SSM_12lag <= 14.6\nsquared_error = 0.5\nsamples = 2\nvalue = 25.6"] ;
1112 -> 1113 ;
1114 [label="squared_error = 0.0\nsamples = 1\nvalue = 24.9"] ;
1113 -> 1114 ;
1115 [label="squared_error = 0.0\nsamples = 1\nvalue = 26.3"] ;
1113 -> 1115 ;
1116 [label="Paddy <= 0.5\nsquared_error = 3.1\nsamples = 4\nvalue = 27.5"] ;
1112 -> 1116 ;
1117 [label="squared_error = 0.6\nsamples = 2\nvalue = 29.4"] ;
1116 -> 1117 ;
1118 [label="squared_error = 0.8\nsamples = 2\nvalue = 26.3"] ;
1116 -> 1118 ;
1119 [label="Soil_Temp_12lag <= 27.6\nsquared_error = 32.5\nsamples = 17\nvalue = 31.3"] ;
1111 -> 1119 ;
1120 [label="squared_error = 0.0\nsamples = 1\nvalue = 39.9"] ;
1119 -> 1120 ;
1121 [label="Soil_Temp_12lag <= 28.2\nsquared_error = 28.7\nsamples = 16\nvalue = 30.6"] ;
1119 -> 1121 ;
1122 [label="squared_error = 4.5\nsamples = 2\nvalue = 24.1"] ;
1121 -> 1122 ;
1123 [label="squared_error = 25.4\nsamples = 14\nvalue = 31.5"] ;
1121 -> 1123 ;
1124 [label="SSM_12lag <= 17.7\nsquared_error = 51.9\nsamples = 42\nvalue = 36.4"] ;
1110 -> 1124 ;
1125 [label="Crops <= 1781971.0\nsquared_error = 9.0\nsamples = 9\nvalue = 41.2"] ;
1124 -> 1125 ;
1126 [label="SSM_12lag <= 16.9\nsquared_error = 6.7\nsamples = 8\nvalue = 40.7"] ;
1125 -> 1126 ;
1127 [label="squared_error = 11.9\nsamples = 4\nvalue = 39.2"] ;
1126 -> 1127 ;
1128 [label="squared_error = 0.7\nsamples = 4\nvalue = 41.8"] ;
1126 -> 1128 ;
1129 [label="squared_error = 0.0\nsamples = 1\nvalue = 47.5"] ;
1125 -> 1129 ;
1130 [label="SSM_12lag <= 17.9\nsquared_error = 56.1\nsamples = 33\nvalue = 34.9"] ;
1124 -> 1130 ;
1131 [label="SSM_12lag <= 17.8\nsquared_error = 41.4\nsamples = 3\nvalue = 24.8"] ;
1130 -> 1131 ;
1132 [label="squared_error = 0.0\nsamples = 1\nvalue = 36.1"] ;
1131 -> 1132 ;
1133 [label="squared_error = 11.1\nsamples = 2\nvalue = 21.9"] ;
1131 -> 1133 ;
1134 [label="SSM_12lag <= 18.2\nsquared_error = 45.0\nsamples = 30\nvalue = 36.0"] ;
1130 -> 1134 ;
1135 [label="squared_error = 20.2\nsamples = 4\nvalue = 44.7"] ;
1134 -> 1135 ;
1136 [label="squared_error = 35.5\nsamples = 26\nvalue = 34.7"] ;
1134 -> 1136 ;
1137 [label="SSM_12lag <= 14.6\nsquared_error = 39.5\nsamples = 86\nvalue = 31.7"] ;
1109 -> 1137 ;
1138 [label="Soil_Temp_12lag <= 36.4\nsquared_error = 31.5\nsamples = 30\nvalue = 35.3"] ;
1137 -> 1138 ;
1139 [label="Soil_Temp_12lag <= 35.5\nsquared_error = 25.3\nsamples = 23\nvalue = 36.6"] ;
1138 -> 1139 ;
1140 [label="Soil_Temp_12lag <= 35.0\nsquared_error = 19.8\nsamples = 19\nvalue = 35.6"] ;
1139 -> 1140 ;
1141 [label="squared_error = 14.8\nsamples = 18\nvalue = 36.1"] ;
1140 -> 1141 ;
1142 [label="squared_error = 0.0\nsamples = 1\nvalue = 25.6"] ;
1140 -> 1142 ;
1143 [label="Crops <= 1601568.0\nsquared_error = 12.9\nsamples = 4\nvalue = 42.8"] ;
1139 -> 1143 ;
