digraph Tree {
node [shape=box, style="rounded", color="black", fontname="helvetica"] ;
edge [fontname="helvetica"] ;
0 [label="SSM <= 6.5\nsquared_error = 9811.2\nsamples = 8982\nvalue = 243.0"] ;
1 [label="Soil Temperature (Celcius) <= 36.6\nsquared_error = 7525.0\nsamples = 4722\nvalue = 301.2"] ;
0 -> 1 [labeldistance=2.5, labelangle=45, headlabel="True"] ;
2 [label="Soil Temperature (Celcius) <= 30.9\nsquared_error = 9805.4\nsamples = 2226\nvalue = 287.3"] ;
1 -> 2 ;
3 [label="squared_error = 11896.7\nsamples = 809\nvalue = 321.0"] ;
2 -> 3 ;
4 [label="squared_error = 7535.1\nsamples = 1417\nvalue = 267.6"] ;
2 -> 4 ;
5 [label="SSM <= 4.2\nsquared_error = 5195.1\nsamples = 2496\nvalue = 313.4"] ;
1 -> 5 ;
6 [label="squared_error = 4993.6\nsamples = 2435\nvalue = 316.0"] ;
5 -> 6 ;
7 [label="squared_error = 3024.7\nsamples = 61\nvalue = 215.3"] ;
5 -> 7 ;
8 [label="SSM <= 11.1\nsquared_error = 4572.0\nsamples = 4260\nvalue = 179.4"] ;
0 -> 8 [labeldistance=2.5, labelangle=-45, headlabel="False"] ;
9 [label="Rabi <= 0.5\nsquared_error = 6231.5\nsamples = 1014\nvalue = 223.9"] ;
8 -> 9 ;
10 [label="squared_error = 6396.7\nsamples = 688\nvalue = 246.3"] ;
9 -> 10 ;
11 [label="squared_error = 2345.9\nsamples = 326\nvalue = 174.7"] ;
9 -> 11 ;
12 [label="Kharif <= 0.5\nsquared_error = 3245.6\nsamples = 3246\nvalue = 165.6"] ;
8 -> 12 ;
13 [label="squared_error = 2384.9\nsamples = 1847\nvalue = 152.2"] ;
12 -> 13 ;
14 [label="squared_error = 3829.3\nsamples = 1399\nvalue = 183.2"] ;
12 -> 14 ;
}